{"config":{"vocab_size":79,"n_embd":64,"n_head":4,"n_layer":4,"block_size":64},"chars":["\n"," ","!","\"","$","&","'",",","-",".","/","0","1","2","3","4","5","6","7","8","9",":",";","<",">","?","@","A","B","C","D","E","F","G","H","I","J","K","L","M","N","O","P","R","S","T","U","W","Y","a","b","c","d","e","f","g","h","i","j","k","l","m","n","o","p","q","r","s","t","u","v","w","x","y","z","","’","“","”"],"stoi":{"\n":0," ":1,"!":2,"\"":3,"$":4,"&":5,"'":6,",":7,"-":8,".":9,"/":10,"0":11,"1":12,"2":13,"3":14,"4":15,"5":16,"6":17,"7":18,"8":19,"9":20,":":21,";":22,"<":23,">":24,"?":25,"@":26,"A":27,"B":28,"C":29,"D":30,"E":31,"F":32,"G":33,"H":34,"I":35,"J":36,"K":37,"L":38,"M":39,"N":40,"O":41,"P":42,"R":43,"S":44,"T":45,"U":46,"W":47,"Y":48,"a":49,"b":50,"c":51,"d":52,"e":53,"f":54,"g":55,"h":56,"i":57,"j":58,"k":59,"l":60,"m":61,"n":62,"o":63,"p":64,"q":65,"r":66,"s":67,"t":68,"u":69,"v":70,"w":71,"x":72,"y":73,"z":74,"":75,"’":76,"“":77,"”":78},"weights":{"wte.weight":[[0.196047753,0.0712588057,-0.105016813,0.0661001578,0.254613042,0.108908184,0.198416278,-0.212290332,0.174083978,-0.412562847,0.234809369,0.0215954389,0.0885773525,0.0111829014,-0.304115415,-0.191859424,-0.00317069283,-0.0614949167,0.186706632,-0.260793835,-0.117191099,-0.145164356,0.0152655225,-0.0279809646,0.144284457,0.156010568,-0.0437960587,-0.286999583,0.0327415355,-0.304110765,-0.00346066104,0.0238982849,-0.0649221838,-0.0124319531,0.0364851356,0.0221025627,-0.0629242435,-0.0959380269,0.156989843,-0.111416981,-0.0403630398,0.188868329,-0.039354533,-0.0687202513,0.187442571,-0.102375947,0.222971857,0.016413996,-0.266138554,-0.0351879559,-0.0680864081,0.11290846,-0.20497331,-0.131204069,0.235450447,0.119651936,0.232658118,-0.0897525102,-0.0476463549,0.192858934,-0.155170664,0.0490070283,0.166484147,0.0187350288],[0.0717368051,0.0587715656,-0.0832719803,0.0265896842,-0.131968826,0.214186013,0.0284877364,-0.17008619,-0.0689530149,0.00300054881,-0.130423889,-0.00208768784,0.0317710526,0.0101048583,-0.0376898348,-0.0887787193,-0.12400993,0.00843682326,0.0410185121,-0.108155489,0.144417048,0.0142290462,0.0464253128,-0.0256560724,0.348418981,-0.00781129114,-0.052420117,0.0536508672,-0.00760454871,-0.0650400668,-0.00108257181,-0.26348725,-0.0458209552,0.204545632,0.121309236,-0.0026833124,-0.0349073298,0.267508507,0.310115665,0.0998993292,-0.00443166168,-0.20756501,0.0722723454,0.0124636488,0.0271284021,-0.290099293,-0.0514154844,0.0807571262,0.11308039,-0.114159867,0.0235714205,0.15365164,0.0187474489,0.0324180163,-0.0892146155,-0.037465997,0.00864713639,-0.237640291,0.0958079249,-0.0935188085,-0.0205067378,-0.0159929693,0.0886900872,0.0650637746],[0.175292596,-0.0800593719,0.117843568,-0.039662756,0.0420471169,0.171150535,0.103083566,0.0365529507,0.261539519,0.0153496722,0.114656769,-0.184374601,-0.063968651,-0.0272092521,0.178888544,-0.117470056,0.119401753,-0.124520592,-0.0264809374,0.195502713,0.0254561156,-0.0514773428,-0.149811566,0.143880635,-0.0723863319,-0.118069336,0.0937140808,-0.311470151,-0.253403515,0.0752233192,0.232043475,0.208212674,0.017186176,0.142203346,0.133559301,0.0112359831,-0.139982432,-0.0183284152,0.0671412125,-0.187439993,-0.1882945,0.0595924631,0.10135866,-0.0691488907,-0.0351404808,0.114598915,0.126632825,-0.165260106,0.0107853031,0.00230129156,0.108541444,0.0475630425,-0.0368897952,-0.135082394,-0.0818881691,-0.0399496034,0.0616865605,0.127826571,0.192485318,-0.0632959455,-0.030522069,-0.319301039,0.0452122763,-0.0905070603],[-0.0631408021,-0.0374624655,-0.181748018,0.00551348506,0.140688896,0.0193397664,-0.152632326,0.0246608276,0.138636962,-0.182333007,-0.0135000171,-0.0183573104,0.0740489066,-0.268305749,0.113274105,-0.0657555088,-0.0395465568,0.0275404099,0.0796926171,0.103579752,0.19823657,-0.0349786952,0.190676317,0.0615213215,0.185711294,0.195049047,0.0261469614,-0.196013585,-0.349077851,-0.10264083,0.175398394,0.00813643727,-0.147295788,-0.0150056751,0.0342952758,0.0421458669,-0.207354903,-0.0738895908,0.28615135,-0.0467871353,-0.103764065,-0.0255831927,-0.0408286341,-0.0349709503,-0.0297782104,0.18465744,0.0175200459,0.209874585,-0.0785147622,0.403571159,0.0209904369,0.0536092557,-0.12610887,-0.0870032609,-0.104579344,-0.0429361574,0.169008464,-0.0461038761,0.0401472077,-0.121241301,-0.0702890977,-0.0807312056,0.024651235,0.00208498305],[-0.17471008,-0.108630724,-0.0368466191,-0.0320856236,-0.119127505,-0.00459099654,-0.028043367,0.263702095,0.234434769,-0.0800744221,-0.0288820807,-0.00178913632,0.0410766453,-0.117435969,0.179756328,-0.245947599,-0.106147461,0.280569196,-0.0243842918,0.0040682843,-0.0901871473,0.195627078,0.00527319638,0.294247031,-0.09746328,-0.0299938843,0.118190274,-0.123335391,-0.11217548,0.024940975,0.0788824111,0.0341997109,-0.307102531,-0.0587611012,0.0296117403,-0.315633059,0.0887767822,-0.150428936,0.10713502,0.144306004,-0.126610652,0.201701999,0.027512392,0.0695249736,0.0608263016,-0.111993805,0.00100925751,0.0251058489,-0.094021365,0.451285243,0.0487043671,-0.115126371,0.0227412414,0.0957916602,-0.201197967,0.101648808,0.163176343,-0.0913816541,0.10093949,0.00430935062,0.047181759,-0.183744684,-0.105608948,-0.0882260352],[-0.390903592,-0.16613017,-0.0923231542,0.115094252,-0.0720897764,0.188669771,0.028444631,0.176332116,0.209442675,-0.124679089,-0.173329368,-0.0540277027,-0.098570101,-0.0833237097,0.211150244,0.0339509882,0.0733840093,0.165140733,0.247088671,0.149179116,0.145729855,0.0208479706,-0.112387724,-0.0505386069,-0.0116987284,0.282868862,0.0559792668,-0.0498462617,0.213103428,0.0383881144,0.0631033331,0.0873221606,0.143501028,-0.0542916805,-0.158140361,0.0134730246,-0.127497405,-0.255387783,0.0534841754,0.0302002244,-0.268897235,0.0906257853,-0.197572276,0.048111327,-0.101858661,-0.0928293094,0.103475451,-0.211525768,0.0373789817,-0.142358646,-0.184552833,-0.0633888692,-0.0695429295,-0.0786888003,0.0392245166,-0.0649746135,0.258392513,-0.0556286462,0.0260909107,-0.0259438306,-0.0217766445,0.0474090166,-0.0869617835,-0.155965582],[-0.115460597,0.0414262488,-0.0388994217,0.153006047,-0.0318442807,-0.0687478557,-0.262247145,-0.0817676336,0.0572658405,0.118380405,-0.195750356,0.174326956,0.0921312273,-0.210832462,-0.0445013978,0.0580132902,0.199250892,-0.120101884,0.0859418288,0.188573003,0.0368940607,0.00574980769,-0.0118868863,-0.0139008723,0.129064292,-0.107455678,0.00214688829,-0.126795381,0.133149937,0.155761048,0.105208859,-0.186579257,-0.174354449,-0.30013755,0.149852082,0.0666863471,0.0499461927,0.0777747333,0.00911961868,0.0244792197,-0.202670574,0.0518922135,-0.0794664919,-0.0819493681,-0.0698533803,0.0135607673,-0.0088241687,0.168798953,0.0963229239,-0.0675024316,0.254833996,0.187486127,-0.18327263,0.258940071,0.174704462,-0.0211609695,0.133601144,-0.0484524108,0.119734518,-0.0294164885,-0.191993549,0.0470822118,0.00479224464,-0.0366191752],[-0.0606881641,0.0476363897,0.270821095,0.0558165275,-0.11690256,-0.0720644519,0.024410598,-0.0670208484,0.286438644,0.0440611914,-0.0190340299,-0.0447274558,-0.0632227883,0.0834693387,0.24353084,0.0601174496,-0.201051265,0.0324781314,-0.00894928817,0.160352543,-0.216062307,-0.0803520381,-0.207687706,0.19682917,-0.02136847,-0.175555021,0.0872906968,-0.13826023,-0.191198513,0.0301429406,0.103096202,0.123075582,0.0840516239,0.0363426246,-0.0590148084,0.0239605401,-0.297916144,-0.128825963,0.207678512,-0.0417194478,-0.066300787,-0.0388873741,0.00450240448,-0.0562032498,-0.00853119604,0.0663649589,0.0503109135,0.0454851054,-0.145620674,0.0448477231,0.0646458194,0.143836081,-0.0284592565,-0.225464955,-0.0832336321,0.018415397,0.112870343,-0.193253279,-0.155064613,-0.0523192734,-0.0572501421,0.150669053,-0.304398507,0.0144189596],[0.120777093,0.0391709432,0.0407729745,0.055930756,-0.168214351,0.234749466,0.0864643455,-0.150798902,0.0855362266,-0.176531643,-0.316769034,-0.242800415,0.213861346,-0.0054375804,-0.158355936,-0.172310531,-0.138654351,0.0646756962,0.148463324,0.145377085,0.0229274426,0.0567076504,-0.0311177988,-0.103663653,0.0505365841,-0.185411289,0.091911003,-0.0289449617,0.038184382,-0.0080677662,-0.136806935,-0.213933259,-0.0192137472,0.0118231699,0.0437501855,-0.0246542711,0.11692889,0.0627140254,0.338821501,-0.0243001394,0.00348936766,-0.111951791,-0.0468696542,0.0241128616,0.132471249,-0.401212901,-0.0195124429,0.139145374,0.0578537434,0.168047875,0.0188227966,0.134931982,0.0132359667,0.112625271,-0.117210083,0.00386397913,-0.0408046506,-0.0622271709,-0.00497970125,-0.0031230289,-0.0731046572,-0.111821838,0.229158193,-0.0221002325],[0.18469575,-0.0307005681,0.0471637323,-0.0596295036,0.0725824013,0.135532796,0.000200203984,0.0566005819,0.0502318442,-0.0054452247,0.0232807864,-0.213495314,0.0894845203,0.0299961157,-0.0424557999,-0.107005544,-0.0810372382,0.034439344,0.0790600553,0.158066466,0.0966586098,-0.0609709769,-0.140809193,0.26500541,0.140534833,-0.404453844,0.0783396289,-0.25517875,-0.122684725,0.025342945,0.196175084,0.0557503365,-0.0351009071,-0.00600293186,0.105348743,0.0837124884,-0.0181067083,-0.107339017,0.0946202874,-0.119080067,0.0249420572,0.0850934312,0.136012778,-0.0355610549,-0.0734442323,0.107208848,0.222436845,-0.253278375,-0.152278513,0.0588438846,0.0335001163,0.164171875,-0.141068786,-0.0703574419,0.0569556095,0.0029041972,-0.0690596104,0.0623009577,0.0412401035,-0.130084231,0.00862462167,-0.247517958,0.0512168333,0.0834376216],[0.120523438,-0.0202312786,-0.228684798,0.0430605747,-0.0931813344,0.0358172394,0.0689279065,0.177979693,-0.123988263,-0.231113285,-0.0136791719,-0.213023201,-0.143552318,-0.0939131603,0.086114116,-0.079994671,0.0200146828,0.0906630754,0.189727381,0.0297683217,0.0529148281,-0.0342515782,0.0418040231,0.0256986935,0.0681031197,0.137889504,0.0528498627,-0.241132468,0.329828441,-0.0815204158,0.0919287205,0.0234049298,0.0774189979,-0.000323196815,-0.101684347,-0.17932345,-0.00998014305,-0.156694159,-0.0640221983,0.110141799,-0.352344513,0.110241517,0.00611453503,0.0637042224,-0.347495705,-0.221127331,0.131165639,-0.0907185748,-0.0111663956,0.11233744,-0.0198853724,-0.180676445,0.151943445,-0.249065876,-0.0114410007,0.0379222967,0.152935714,0.0117920637,0.0891827494,0.11557582,-0.0142702088,0.0667387322,-0.0686325356,-0.165639833],[0.0355821587,-0.110669918,0.0255496632,0.033501476,0.116701007,0.0484004244,0.137508914,-0.0979656875,-0.145482913,-0.189301997,0.123381987,-0.173260123,-0.232178271,-0.139133155,0.0608598739,-0.128599733,0.0154910218,0.223796293,-0.129072994,0.0956839249,-0.328857839,0.0928917602,-0.11555694,0.170632407,-0.0982872173,0.0831817612,0.129752874,0.014462797,-0.114824854,-0.0332434103,0.0930789709,0.115816921,-0.112877592,0.0558134355,0.0419612229,0.152077198,0.0901179537,-0.0759960636,-0.0338646099,0.170834228,-0.0101668546,0.0444845483,-0.00188739563,-0.0572802834,0.0972915664,-0.0292177591,-0.0217988696,0.202542484,-0.00429599453,0.159492135,-0.39604184,-0.0523400158,0.117296442,0.0703061298,0.12350592,0.0462945402,0.140404359,-0.160530418,0.22258167,0.0796691403,-0.034055572,-0.148836285,0.053981021,-0.0379951783],[-0.228607625,-0.113205485,-0.141945928,-0.147043228,0.0571246147,-0.0402963124,-0.0270070639,-0.0455147326,0.217062473,-0.369470686,0.171587661,0.0208073761,-0.143457577,0.0270950384,0.149503991,0.140304431,0.0846276432,0.33754909,0.0612564087,-0.0847524628,-0.0760712624,0.109807052,-0.126827776,0.264850557,0.0517247319,0.0105721699,0.0835392103,0.0533012263,-0.0123744002,-0.0916462019,0.145257547,0.127828911,0.0670374259,-0.01159201,0.109215327,-0.00356086507,0.0582611933,-0.115373917,-0.188953668,0.206580833,-0.119149499,0.186144501,-0.0118951742,0.00240433752,0.0999608561,-0.000420691911,0.0490915142,0.0520838164,-0.209530696,0.0215215776,-0.13577868,-0.179718584,0.0145858573,-0.0421063788,-0.0989634916,0.0997441933,0.0765386894,-0.0632857531,-0.0704958588,0.118551999,-0.000637380232,-0.119200714,0.122917637,-0.416982979],[-0.240806162,-0.0501405299,0.111602999,0.0119206868,0.168344095,-0.0207808856,0.128979906,-0.00655269669,0.125425965,-0.258876771,0.195561036,0.00393786328,-0.057111457,-0.146134198,0.0206962712,0.0723771229,0.186391994,0.333380014,0.0861580148,-0.0884837136,0.0238305796,0.0544262305,-0.0795217827,0.0917623639,-0.0258309208,-0.0589755177,0.0370224006,-0.14029789,-0.169043496,-0.0687914714,0.0550986044,0.156463683,0.0198888574,-0.0828712136,-0.211350843,0.0470041968,0.0351372324,0.0527393371,-0.120394818,0.0826422498,-0.123418771,0.215468779,0.0865013972,0.00614152988,-0.110577144,0.040812768,0.0820542723,0.317944586,-0.0734720379,0.0595956594,-0.135292351,-0.104482107,0.0647327676,-0.152584627,0.0223470125,0.0897096097,0.0745183751,-0.0624167584,0.0686808005,-0.0518192425,-0.217004851,-0.0697668344,-0.00351641816,-0.398012578],[-0.210713282,-0.111042224,0.132245034,0.00872744154,0.156033501,-0.120947793,0.138171792,-0.00428090058,-0.0303339902,-0.155755624,0.215285584,0.0639225096,-0.0921456143,-0.0500961319,0.0891051218,-0.173784822,0.156118453,0.358199179,-0.178005859,0.264699608,-0.212748691,0.0312268622,-0.0893215537,0.0735883266,-0.0162698347,0.170303926,0.0529855751,-0.304652274,-0.24039112,0.141774982,0.0133832442,0.00257888972,0.0283696484,0.068314679,-0.0035189623,-0.104456797,-0.0462378673,-0.158006847,0.0577494949,0.211428329,-0.0153228231,-0.0899060667,-0.0449725389,-0.0202838872,-0.0650865138,-0.0118024182,0.0526801422,0.110082753,-0.109178782,0.0531951338,-0.109534957,-0.122783266,0.113957338,0.00868664403,-0.0544167832,0.0136040738,0.194323882,0.177914724,-0.167517677,0.0204660129,0.022738561,-0.123830184,-0.000368857611,-0.234006986],[0.106380731,-0.198440805,-0.0647904798,-0.0189674608,0.0708929002,0.13668476,0.233007774,0.0888228416,0.072428979,-0.192960247,0.215270102,-0.064676784,-0.0853981003,-0.150291696,0.20700945,-0.0689911619,0.0578500405,0.342712879,0.053077355,-0.0766135901,0.0893528536,0.0611780621,-0.177192181,0.0614366755,-0.0523674265,0.045016259,0.117792517,-0.239244312,-0.141324729,-0.238429561,0.0996122807,0.00688556675,-0.0825925097,-0.0280156918,0.0212881435,-0.194007203,0.0511470623,0.179851189,-0.110907599,0.0682348907,-0.137418553,0.159756362,0.0476536751,0.0323369168,-0.161865026,0.00997832417,0.0291575287,0.189877048,-0.176343977,0.121376395,-0.210387006,-0.196053118,0.140036985,-0.181281194,0.0539302528,0.0743654668,0.156002939,0.0165874623,0.105055846,0.0440664925,-0.0607844479,-0.182966441,0.132008255,-0.235506043],[-0.307388365,-0.177431509,-0.0989853293,0.0425633676,0.0644395649,0.00670373347,0.188279569,-0.0297955908,-0.00101262075,-0.132750452,0.358827084,0.148177996,-0.0646682829,-0.104662128,-0.168914959,-0.0766697675,0.182184592,0.164914623,-0.121956639,0.0215002522,-0.251637876,0.0917891115,-0.239525214,0.134816274,-0.0177016258,0.158022001,0.0289953817,0.0138794091,-0.175062686,0.0152016198,0.249412462,-0.0230801962,-0.0394319594,0.158466563,0.0135867074,0.161766276,0.133817911,-0.0938869342,0.0153463753,0.0161744822,-0.118069164,0.197142854,0.0258958358,0.0445393063,-0.0974252969,-0.0852474421,0.0629416332,0.0636478812,-0.0408277512,0.0805463195,-0.207058132,-0.304561883,0.0275963098,-0.129541934,-0.0436710455,0.0241923984,0.108624518,-0.139651,0.0649111494,0.144462615,-0.0320040695,-0.0210179873,-0.158629194,-0.0650295839],[0.0306183845,-0.0687904954,0.0641628578,0.0424742959,0.104117118,-0.194892347,-0.148384035,-0.17301546,0.00375594478,0.0561961308,0.299382746,0.00616422109,-0.162506431,-0.0834945217,-0.104060121,-0.107444249,-0.073071152,0.165052414,-0.162863329,0.10006699,-0.0169491824,-0.0566394255,-0.0584355369,0.0584296472,-0.0176768526,-0.0967812687,0.131695032,-0.004895519,-0.0760348588,0.0209191665,0.123646535,0.182786435,-0.0374902673,0.0693390965,8.80985608e-05,-0.148087069,0.117037408,-0.134005636,-0.169717401,0.0621986501,0.00164837495,0.176159963,-0.0590647645,0.0520631373,-0.224610493,0.104956605,-0.0885875747,0.0534116887,-0.183903024,0.280721873,-0.171627209,-0.109624915,0.0811201781,-0.0126306508,0.00939894747,0.0654395521,0.13933526,0.057749223,-0.0744127482,0.15311195,-0.137767658,-0.149056301,-0.130563423,-0.156587601],[-0.121373683,-0.0430432744,0.132808343,0.104536861,0.109243467,-0.0605937764,0.00615457632,0.0525919572,-0.124478064,-0.101777539,0.241808981,0.116206385,-0.00313175842,-0.148487806,-0.014301925,-0.16599901,-0.0282596797,0.380950868,-0.111154743,-0.0267117135,-0.218898058,0.0630970448,-0.145003408,-0.00346903293,-0.0466530807,0.00565857813,-0.00113241235,-0.0871108025,-0.0723766908,0.119517364,-0.00489558373,0.119283453,0.0130447168,0.0673882812,-0.234455824,0.0541574173,0.181904897,0.0956877694,-0.205698654,0.215650618,-0.0276012886,0.306340963,0.0710294917,0.00319681643,0.0427544899,0.0910410285,-0.114771992,-0.0615056083,-0.00829484966,0.122943193,-0.268343478,-0.113478564,0.0556217954,-0.0680621788,0.0109444428,-0.00782737043,0.193262279,-0.0405823104,-0.214678302,-0.0725306123,-0.0470858924,0.119608842,-0.0850889683,-0.142484263],[-0.00669184001,-0.0975992158,0.0495274663,0.0633353293,0.150973797,-0.0209498517,0.0276150201,-0.0691693425,0.109309219,-0.24389112,0.24340108,-0.181147665,0.0741199628,-0.162337035,-0.039106857,0.0392535888,0.0741562098,0.13452439,-0.0276922304,0.0498379953,-0.140478685,0.225105241,-0.128348336,-0.0754510835,0.0486406758,0.0702406615,0.0628061667,-0.0479262993,-0.0940406695,-0.00216258457,0.0769265816,0.129968986,-0.0583469383,-0.0265412107,-0.0140593275,-0.177276,0.174254477,-0.18110548,-0.198431969,0.135759294,-0.0499962717,-0.0360949337,-0.210196525,0.0832693204,-0.144725025,0.176630229,-0.109192401,0.206300735,-0.157569781,0.0664781034,-0.199679255,-0.143566772,0.0871886685,0.0916625336,0.179401278,0.0608149059,0.0239632465,0.0321907587,0.251862884,0.200897411,0.000662566163,0.0901947767,-0.18797408,-0.465247124],[-0.360904694,-0.00550249172,-0.21056664,-0.123752378,0.101483174,-0.133951634,0.161420569,0.0521885529,0.0684482083,-0.216557994,0.228203505,0.111899875,-0.0212832429,-0.15741533,-0.154625416,-0.163817957,0.0417859145,0.2924079,-0.109843209,-0.0301060174,0.0450911485,0.0548586771,-0.165342823,0.0349859968,0.114050463,0.0183670614,0.122935176,-0.0137306023,0.116802104,-0.168398902,0.138554335,0.214436799,0.0281819291,0.0738743544,0.196602315,-0.114489272,0.142544284,-0.0129064284,-0.141409934,0.0550034232,-0.233067825,0.113688193,-0.042688746,-0.0333325975,-0.120952368,0.237420082,-0.02075449,0.162260532,-0.0320483036,-0.0254378598,-0.116381325,-0.196559563,-0.0231782682,0.149768144,0.107109711,-0.00284544844,0.234442145,0.145698994,0.177886963,-0.0809407979,-0.0356923528,-0.0209433436,0.108990274,0.0425157994],[0.0489445478,0.0753783807,0.148775086,0.0108416844,-0.176154345,-0.0802712217,0.0985759273,-0.19630523,0.0959120765,0.111927927,-0.143738791,-0.0264810827,-0.140748769,0.0401804261,0.185135841,0.0843957663,0.0487630181,-0.160694554,-0.161818296,0.0563724563,-0.152071968,-0.00291250227,-0.0846458822,0.300282359,0.0161693487,-0.297162175,0.0965476483,-0.0397796892,-0.0418079756,0.11399667,0.160440251,0.104453079,0.0621362031,0.0904964283,0.26111871,-0.0543334372,0.022787841,-0.313996017,0.14949818,-0.136008278,-0.181590229,0.144314811,0.0851761177,-0.0276971534,-0.0295639075,0.205974773,-0.0400534794,-0.0660229847,-0.058526542,0.0752382204,-0.0686111376,0.269555956,-0.131144196,0.150881276,-0.170507953,0.00932855252,0.0349682681,-0.0978666991,0.144168556,-0.0641872957,-0.0144242393,-0.0541656911,-0.14262861,0.0159445275],[-0.110749163,-0.0537793748,0.0981188118,-0.0116042737,0.0732487515,0.151783302,0.127122834,-0.0463907681,-0.0795716494,-0.0811053142,0.147462264,-0.0676200986,-0.158309892,0.0163266715,0.229331627,0.0307028666,-0.150090516,-0.0182631649,-0.117094234,0.149861574,-0.180092156,0.0306633953,-0.0434710756,0.0888754427,-0.187139034,-0.113913082,0.0613507144,-0.35079354,-0.0857120231,0.135912776,0.119165108,-0.00327963103,0.0914927348,-0.184448034,0.0330198891,0.0732649639,-0.223740235,-0.200917453,0.289196104,0.1080117,-0.032153856,-0.162018344,0.0914487392,0.0534951538,-0.101881698,0.0161641873,0.0799923614,-0.194515854,0.0353488997,0.0356405266,-0.0651900917,0.14364028,0.0100039905,-0.217069149,0.0610725321,-0.0430563577,0.0799023584,0.0300360397,-0.0331504345,-0.166091651,0.0422605909,0.0697107762,-0.173214227,-0.031852968],[0.0611787327,-0.222876132,-0.101165093,0.0687817782,0.202297881,-0.0336017422,0.0453477316,0.301979244,0.0624817237,-0.25234428,-0.160126463,-0.154036567,0.0400888212,0.0760529861,-0.206699789,-0.102541439,-0.0444991663,-0.0616184175,0.0618963763,-0.0194114912,-0.257672697,-0.289304137,0.0334993601,0.142793357,0.00344121852,0.225719199,0.149588332,-0.0830279067,0.0165841989,-0.138251185,0.0545891188,0.279319674,0.12011838,-0.222993314,0.0404649973,0.0605021156,0.427359909,0.0711862743,-0.0818780363,-0.402093381,-0.200929567,0.336554825,-0.0601634793,0.0567820035,-0.0206391923,-0.0724057928,0.0738031417,-0.0839610845,0.0130890943,0.354127437,0.179162905,-0.163218603,-0.0978891402,0.0355248414,-0.0305768121,-0.240593702,-0.0209449381,0.253741235,0.0909310877,0.325773627,-0.0260912254,-0.166897371,0.151455745,0.162719756],[0.121554285,0.363388568,-0.372009277,-0.096141912,-0.079708077,0.0337403901,0.21510075,0.15512298,0.00935206749,-0.241171747,0.15602316,-0.282542467,-0.0868358165,-0.132336453,-0.242070079,-0.15165396,0.0693664923,-0.258614093,-0.0182358231,0.000219398324,-0.26258707,0.2200142,0.0599468835,0.0656951442,0.00660034269,-0.0081123393,0.0392575599,-0.143042564,0.0909573287,-0.0352363922,-0.145426616,0.074041307,0.217607528,0.0945218652,-0.0644086823,0.000583669636,0.128538996,0.285111308,-0.0709730908,-0.061682377,0.00956155546,0.29417178,0.00986282807,-0.146365315,0.0305626765,-0.015707897,-0.151989013,-0.151115283,-0.134291723,0.263270289,-0.17523481,-0.12847276,-0.176379144,0.137498006,0.0632053241,0.0388482101,0.0521925874,0.132108003,0.00802297331,0.355048895,0.26532957,0.119389139,0.131484777,-0.238915235],[0.0997500643,0.0499342382,-0.0599489622,0.00243427209,0.0444006585,0.155907601,-0.101975739,0.0144872218,0.131064355,-0.0815983713,-0.0477637686,-0.183772251,0.15724574,0.090018101,0.0147089334,-0.151842609,-0.0132899173,-0.064038232,-0.0105618183,0.0918390453,0.118629202,-0.262435347,-0.0768180862,0.0561268963,0.0422658212,-0.314970195,0.0293002147,-0.319236815,-0.158344328,0.00892527774,0.130501449,0.152040347,0.0445897765,-0.118106462,-0.0920266882,0.188722059,0.0554735735,-0.0058973073,0.264831156,-0.182830438,0.00989484228,-0.113968261,0.104064263,-0.0760259703,-0.049163036,0.193359673,0.203899175,-0.255075127,-0.14492923,0.0548984632,0.000684483617,0.185423449,-0.174554795,-0.057794407,0.048744563,-0.0878357515,0.113823868,-0.0420453101,-0.00210322975,-0.159031227,0.050966572,-0.160185948,0.0689921975,-0.0725235194],[-0.0337072983,0.100143783,-0.0889744312,-0.0336885974,0.0175323691,-0.0971778035,-0.0171489548,0.0182629824,-0.0305968467,-0.0150743239,0.0198838171,-0.0396670476,0.021284366,-0.0518927276,-0.0162937958,-0.0591845401,-0.0639026389,-0.0924751759,-0.0969223827,-0.000319899264,-0.0201652907,-0.077442795,0.0185636152,0.0378493108,0.0490632989,-0.0231657904,0.11456386,0.042756483,0.0643819645,-0.0268022604,0.108628839,0.0101047615,0.0200698134,0.0433305092,-0.00481393235,0.0111042811,-0.124933705,-0.0122662708,0.0815626606,-0.112023972,0.0743925348,0.00131295109,0.0927383378,0.0187285896,0.0393107161,-0.0250953846,-0.00481178751,-0.023494184,0.0261407718,0.109919317,-0.0403873622,0.0562630482,-0.0697222948,0.0928977802,-0.128121659,-0.00845556427,-0.0557808727,-0.0774964839,0.022276191,0.0827063173,-0.00433783419,-0.0189249814,-0.00465288153,0.0314456709],[-0.112971745,0.047181908,-0.103682645,0.0666881427,-0.120148405,0.0613465309,-0.0711908937,0.136128157,-0.128222242,-0.218296796,0.0274272747,-0.0795467645,-0.0896218419,-0.253033966,0.00047909352,-0.0235241521,-0.0595768243,0.298881263,-0.00869479589,0.0626020655,0.300196171,0.111466967,0.187159985,-0.129672006,-0.184855714,0.0325695723,-0.0461231396,-0.255065262,-0.15158771,0.0319985226,-0.0926249698,0.041920092,0.00782359019,-0.00714792358,-0.253649652,-0.201193437,0.346682698,0.0850227401,-0.058358036,0.100867212,-0.223540202,-0.0372419655,-0.0404481366,0.0390939042,-0.0213824045,0.146421224,-0.0465578549,0.0905694366,0.0336398333,-0.0864110366,0.0294788089,-0.057223551,0.0433013178,-0.0631131083,0.349746317,-0.00551216491,0.229800507,0.0246783178,0.343323678,-0.0943827108,-0.00215971912,-0.0969296545,0.112547159,-0.102762461],[-0.0536085181,0.108700916,-0.0391922481,-0.032965444,0.0798956603,0.25025624,-0.00177933322,-0.0369955041,0.0851870254,-0.209021345,0.0349351615,-0.244583204,-0.168625161,-0.0188281201,0.226332828,0.0323392451,-0.0416101366,-0.376446098,0.221327603,-0.0657439008,-0.0653935075,0.0444962792,-0.108512647,0.0825243369,-0.0279564187,0.0666595474,0.149932861,-0.399535805,0.20834057,-0.338064432,-0.0119113,0.12020047,0.159855276,0.0972527117,0.150985658,0.0205918476,0.325571775,0.0181168094,-0.0564853214,0.15678075,-0.0938720852,-0.00396138895,0.100127488,-0.121555492,0.101969928,-0.0533423685,-0.0913600251,-0.109971017,-0.127081037,-0.0701819137,0.0373419039,-0.0981111452,-0.0813800171,0.0311632641,0.236405134,0.0102435956,-0.0637116507,0.0165960025,-0.0864228085,0.201586574,0.0271000825,-0.00871777255,0.308322161,-0.0292268004],[-0.323261827,0.00770409824,-0.0121670663,-0.0129156373,-0.0236995798,-0.148648873,0.0797252506,-0.140989572,0.106091537,-0.00187728833,0.0450614244,0.0693132207,0.176874578,-0.130271465,-0.246336952,-0.168378457,0.133272067,-0.0156157203,-0.0657140762,-0.291340321,0.0677847862,-0.095239535,-0.0760777593,-0.0965000466,0.157445282,0.242039576,0.0782743916,-0.00750305643,0.132131889,-0.207386613,0.137010992,0.0450177751,0.0416574664,0.124051586,0.071541138,0.0389116146,-0.110691547,-0.116325527,-0.0408314541,0.0034585956,0.00279247481,-0.17195487,-0.0763874128,0.041011136,0.0966293141,-0.226754799,0.0263881274,0.197531879,-0.0262454413,0.0435270332,0.0303928554,0.0503433943,0.00580957113,0.306417882,-0.0821512714,-0.0465763919,-0.03230175,-0.134315893,0.142303988,-0.00565419113,-0.0946994349,0.0880094171,-0.00253957254,0.246708348],[0.00340590673,0.0658996552,0.180941403,0.117548555,-0.115921997,0.162684947,-0.381443828,-0.15208225,-0.120716654,0.262520701,0.0955750123,0.156073242,-0.0868521258,0.0407630242,-0.0799485669,-0.0994806588,0.0477840602,0.246386155,0.139306024,0.0982223526,-0.0182406455,-0.108237207,0.00316468393,-0.099391982,-0.144939288,0.0264840387,-0.134060055,-0.0505116731,0.136250481,0.00500948541,-0.0351952314,0.305228293,-0.0620976277,0.0602107421,-0.380462736,0.132703349,0.0550626926,-0.0218581222,-0.0406559892,-0.261879712,-0.0209599361,0.0745485723,0.184031442,0.0419512093,-0.0478593186,0.151544169,0.109933816,0.0379786231,0.0332288332,-0.0465926528,-0.123100914,-0.123864286,-0.195688203,-0.238157958,0.0780174583,-0.0275983084,0.175997585,-0.151029512,0.0542182177,0.160955876,-0.141071856,0.0323355012,0.0659757629,0.0520877652],[-0.132687896,-0.105648704,0.278742522,0.0926000327,0.00368729117,0.0324482433,0.0378239825,0.0924954265,0.0842647925,-0.0553525276,-0.082778357,-0.307108998,0.067016162,-0.0791887939,-0.0788678005,0.0706155449,0.0495475829,0.0391552448,0.0775535777,0.059438426,0.0747722089,-0.144220531,-0.258659363,0.358406156,-0.379448712,0.0618651211,-0.0682558566,-0.0593336113,-0.140288413,-0.122573853,0.0208782908,0.266148239,0.0430375226,-0.12794432,-0.198516443,-0.160232902,0.188128367,-0.0374834202,0.0267617237,0.00566016231,-0.0144186774,0.0183382127,-0.00756486971,-0.226380676,0.147873089,-0.0185244419,0.335437387,0.0745484978,-0.0313373357,0.00988092553,-0.0657806247,-0.00846720859,-0.151528284,-0.169899777,0.163210094,0.0343182869,0.116726197,0.0653277189,0.125639319,-0.09469717,0.199800313,0.178990677,-0.114448085,0.202754796],[-0.186991185,-0.0271355473,0.040213421,0.0255659167,0.125229076,-0.068467088,-0.0339312442,-0.0686194077,-0.243055359,-0.0919115394,-0.17353262,0.257252604,0.299230009,0.00346310553,0.0209303573,-0.225402772,0.111694098,-0.0348436721,-0.0380970798,-0.00813145842,-0.0858284831,-0.00144625956,0.126792908,-0.169356793,-0.132560924,0.0279390235,0.0824026763,-0.151453584,0.261072934,-0.0315012075,-0.106815368,-0.205018491,-0.0362047739,-0.0279453527,0.168791622,-0.0323067531,0.0515865125,0.0346250311,0.137551337,0.0988868624,0.162555933,0.0480085462,-0.190324739,0.0729905516,0.218041629,-0.151941478,0.120938063,-0.214911044,0.138375744,0.100942224,-0.110299133,0.013704977,-0.0530833714,0.131970018,0.215949103,-0.0524303392,-0.164794311,-0.0506143123,0.0202848371,0.140939862,0.00669400115,0.126996905,0.13207148,0.194232419],[-0.0783785731,-0.0258820131,0.204604506,0.0902328342,-0.122442037,-0.00318018021,-0.0656756759,-0.0735821202,0.0977381691,0.287410408,-0.165459707,0.312095523,0.04856769,0.213646144,-0.155231446,-0.178607002,-0.407167286,0.0012831057,-0.0860278681,0.0717031583,-0.213598564,-0.0312277563,-0.262205571,-0.179694444,-0.128289819,0.191225767,0.250445634,-0.198404863,0.160332352,0.037297938,-0.103159159,-0.112346329,-0.168258518,-0.121701352,-0.000956147385,-0.0635826364,-0.155380949,-0.0397293642,-0.00743771903,0.011377926,0.091727376,0.0599005334,0.0628496036,-0.0677293539,0.332492471,-0.0857846364,0.107999772,0.0916449055,0.058432363,0.0123765487,-0.0534477681,-0.076131165,-0.201389626,0.0578311682,0.232386842,-0.00123256864,0.0858711526,0.0184982456,0.191896036,0.206378117,-0.0484509952,0.0457310528,-0.0124052931,0.138261661],[-0.034091834,-7.41766999e-05,-0.100549981,0.0720139518,-0.0649681687,0.0411921665,-0.208961725,-0.0535782129,0.118493155,0.0466518849,0.120558798,-0.115578659,-0.0167921409,-0.0545550175,0.186877131,-0.0469256081,0.17446509,-0.0153782116,-0.035347186,-0.101950713,0.227506801,-0.165474147,0.0243521165,-0.0169700515,-0.143718764,-0.0962294862,-0.0838615745,-0.27267471,0.368508697,0.130469486,0.148194343,0.171083584,0.0646979511,0.0263328981,-0.0663808063,0.0966674387,0.377246648,0.0217693765,-0.0342064723,0.0938313678,-0.156869844,-0.19794704,-0.192840204,0.078122288,0.0133485906,0.0278424993,-0.14367196,-0.027514426,0.0208743978,-0.0333026052,0.187067002,0.0746203735,-0.0865994915,0.0849209428,-0.136744797,-0.0329883844,0.001784286,-0.113183461,-0.215703741,0.14913258,0.0270293392,-0.149508849,0.00657236343,-0.0612459779],[0.143438771,-0.108030975,0.0831448212,0.14407295,-0.108906269,-0.0655008331,-0.0640736744,-0.0213929731,-0.0771751702,0.0358995311,0.276870728,0.124605864,-0.0226652808,-0.0786886066,0.0721177161,-0.23138836,0.0790675208,0.0943672433,0.0526036546,0.0798189938,0.156819418,0.150684819,0.0254611149,0.101788625,-0.0458917655,-0.0376949757,-0.117664233,-0.257600844,-0.0527852476,0.0187773965,0.0652194768,0.162086368,-0.0663106069,0.040954534,-0.156976312,-0.164642274,0.285397768,0.164818436,-0.102314949,-0.0122838756,-0.17661792,-0.084846735,-0.205939457,0.0509024672,-0.160165012,0.0215946194,-0.00754994806,0.0578414984,-0.0152442893,-0.0320162773,0.070869036,-0.299535185,-0.17639479,-0.239683062,-0.112693049,0.0570114963,0.201592699,-0.119858123,0.0310633294,-0.0422210135,0.175496563,-0.051398281,-0.0769395083,0.0641733557],[0.0641594753,0.0171426442,-0.161678642,0.00176981138,-0.249504313,0.0573371798,-0.14388676,-0.051731579,0.104655184,0.0545030646,-0.0400644988,-0.0354255512,0.218311235,-0.0695311129,-0.139118791,0.00904178154,-0.221602559,-0.201551199,0.0399518237,0.0852105767,-0.10856805,-0.128166944,0.166380644,-0.330042332,-0.223280728,-0.229169115,0.0791907087,-0.146434024,-0.0496398285,0.0749001801,-0.0678730235,0.0949697793,0.148610771,0.197715357,-0.146418184,0.00129082857,0.298017353,-0.170459732,0.106657252,0.176681623,-0.140537262,-0.110819302,-0.0544642247,0.0909305289,0.0715498179,0.0415435545,0.0463000089,-0.00842253398,-0.0224777069,-0.181188136,-0.020277543,0.0711445808,0.0607550219,0.0293191876,0.192062721,0.0483578965,-0.00390932197,-0.00304616126,0.255826175,-0.0686166883,0.0385799184,0.247276783,-0.00194132188,-0.0834270343],[0.0611645766,-0.212349251,0.289311677,-0.0940977484,-0.129529372,0.0902411118,0.150659531,0.060605716,-0.124156319,-0.0753223971,-0.0059590647,0.164329872,0.0767867267,-0.114340261,-0.196601763,-0.0527550764,0.08752428,0.0422039218,-0.0924647376,0.291192025,-0.152599007,-0.00452329125,-0.129699409,0.0542241633,-0.301707864,-0.0251296945,0.127959713,-0.0723444819,-0.115676425,-0.00329243997,-0.0783003271,-0.171757013,-0.0347266272,0.102676049,-0.0654799789,-0.0163383316,-0.245792165,-0.191659063,0.06391792,0.025680894,0.0547590032,0.0551620647,0.0189744812,0.0709078759,-0.0221141335,-0.185130283,0.172280014,0.238118365,-0.050576359,0.152274519,-0.229673177,0.109311379,0.0549456477,0.171437904,0.0182323866,-0.048670128,-0.0693748742,-0.153880298,0.240735903,0.0415728725,0.020054549,0.0883034095,-0.13334088,-0.257275075],[-0.0436291844,-0.0195126515,0.214727595,-0.0873085409,-0.0156804584,-0.0748076662,-0.2084409,-0.105228923,0.337551981,0.00339969061,-0.178377524,-0.156192064,-0.028839469,0.0234826766,-0.202891797,0.0338414498,0.343766242,-0.0793431774,0.135170206,0.147905082,0.0676386729,-0.177499428,-0.170182824,-0.0991518125,-0.1586584,-0.00836696196,0.0682437196,-0.150347814,0.176073939,-0.0872609019,-0.0473236926,0.0761527717,0.0867033973,0.116942026,-0.320353746,-0.145290837,0.028501302,-0.0722444803,-0.110576659,-0.213290602,0.067055054,-0.0173728988,0.0815948993,0.0516715981,0.11045032,0.0383638181,0.0852242261,0.180933133,-0.254112542,-0.149498776,0.0754714906,-0.0847342014,-0.0185322631,-0.00870208256,0.240867391,0.0222917739,0.0206113365,-0.173782811,0.15528281,0.16202347,-0.0255072601,-0.0785749778,0.0262210984,-0.129942372],[-0.27119109,-0.0180043522,-0.275102496,-0.108629711,0.0372906886,-0.0937603712,0.0172073543,0.154289022,-0.220522717,-0.124797083,0.127421215,-0.0178255513,-0.0362288617,-0.00430458598,0.0116264438,-0.146594137,0.0742536336,0.280391186,-0.26654157,-0.0467983596,0.191906914,-0.0463287942,0.0737034976,-0.136372522,-0.216785982,0.039946977,0.0133336056,-0.00825720932,0.114301309,0.188934937,-0.0205314159,0.115115397,0.0325513482,-0.0874155611,-0.182708517,-0.118120477,0.12033768,-0.144940943,0.0858272985,0.221408308,-0.101772822,-0.141812235,0.14851965,0.106747396,-0.0364942886,0.00900599826,0.00175266049,-0.0416107401,0.158053041,-0.00542570604,-0.0973670408,0.0580855012,0.150448203,0.0425444208,-0.104146093,-0.0614232421,0.150561839,-0.0017287347,0.192445666,-0.144945621,0.002108366,-0.220446065,0.165652946,0.176957592],[0.1240573,-0.0174545664,-0.0580970421,0.0429381318,-0.226770848,-0.0664978772,-0.0326776281,-0.108999699,0.143023506,0.0890285298,-0.27058354,-0.0170060545,0.233614281,-0.131099835,0.087140888,0.14135924,-0.00323399692,-0.250447601,0.121690169,0.0608790182,0.11496447,-0.26788339,-0.0769256204,-0.212808102,-0.0369241014,0.112196416,0.116818845,-0.160054088,0.0679788217,0.0126920361,0.116066575,0.194211841,0.00431202073,-0.123305582,0.0206826217,-0.0841763765,0.13775745,0.203710094,-0.114172794,0.0376506373,-0.156513408,-0.0947512984,-0.173806518,-0.0654420555,0.0504786819,0.090513669,0.0702926368,0.0727878883,-0.0377664715,0.0178222433,0.330592006,-0.0846229866,0.0132270828,-0.037303783,0.0744595379,-0.00110641529,-0.195843324,-0.0483425967,-0.103946052,0.173554763,-0.216005787,0.0741333365,0.0236337781,0.237271696],[-0.427558959,-0.00601410167,0.0103555685,-0.0914093181,0.212146953,-0.254416943,0.344620943,-0.0757519305,-0.0724213049,-0.229250789,-0.151620969,-0.0656260103,0.0251591224,-0.236539885,0.251401037,-0.158253178,0.0639214069,0.215228528,0.041067943,-0.181002229,-0.215386972,-0.0870492458,0.31127876,0.369299829,-0.0526789986,-0.023910515,-0.330128938,0.0174945015,-0.0564331524,0.00466970121,0.367034465,0.0092932405,0.183034942,0.161522508,-0.0813693851,-0.036714159,0.211954355,0.235960394,-0.0596619733,-0.196699932,0.0620734915,0.411825359,-0.17665863,-0.283987999,-0.0720943809,0.00567451399,-0.207065061,-0.216249853,0.195689306,-0.070472911,-0.00189551234,0.0336537249,0.0205043014,-0.0304433629,0.0810799152,0.280999899,0.316495657,0.0126372539,0.202276066,0.106335536,0.0499689281,-0.0588029362,-0.2838296,-0.126752838],[-0.15933755,-0.00432847813,-0.181159198,-0.0981230438,0.220771521,-0.132905588,0.0556206778,-0.168063894,-0.258462161,-0.212542504,0.0159541816,-0.027859861,0.0510541201,0.133790553,0.0699292198,-0.123805225,-0.264495254,-0.0351202264,-0.211747184,-0.0924288332,0.0470719598,-0.185527891,0.0113833835,0.0921668708,-0.0500896163,0.206371695,0.0286134928,0.0866081193,0.181114063,-0.0134640643,0.158320546,-0.000884779904,0.0751188472,-0.0807029307,0.188420609,-0.136479899,0.166474715,-0.246367171,-0.118141964,0.110790282,0.174602866,-0.16254966,-0.32298553,0.0594909526,0.00183816755,0.0379031748,0.107642196,-0.155341133,0.0466503464,0.174418762,0.0492263958,-0.0805301294,0.105228417,0.227282479,-0.126059338,-0.0123573979,-0.146246269,-0.00370674208,-0.0804278329,0.245033994,-0.0699277669,0.139048383,-0.0244546235,0.0646625981],[0.284949094,-0.172391981,-0.138137445,-0.0336503237,-0.124680705,-0.0109631149,-0.00261245412,-0.0671653375,0.00418984285,0.0346870497,0.271720737,0.0331426673,-0.0577870905,0.103655115,-0.066222541,-0.229003921,0.0283340532,0.0588140711,-0.0447195247,0.117515035,0.034683153,-0.0314928442,0.022521425,0.071484372,-0.136539653,0.126711309,-0.0678385571,-0.266873777,0.234292045,0.0265786853,-0.168882385,0.147765368,0.178674385,-0.0265063681,-0.202312231,-0.0110340025,0.0169528928,0.0865790173,-0.190746307,0.0718167797,-0.134018898,0.0123053538,0.0471631587,0.0814401209,-0.113308616,-0.101955436,0.140821621,-0.0073298011,-0.116585821,-0.0205670502,0.106827535,-0.229302287,0.0868332833,-0.210039854,-0.19104217,-0.0277139638,0.112466075,-0.0122189019,0.0546743162,0.070050694,0.240467235,-0.00559115363,-0.0240278207,-0.235101119],[-0.134603009,-0.170030907,-0.114916436,-0.278496027,-0.192032635,0.0222903341,0.177389085,0.0140988408,0.00813145656,-0.23688975,0.133703321,0.0149596715,0.115194105,-0.0304186139,0.307676107,-0.163718894,-0.0355969705,0.169646546,-0.195988774,0.098019354,-0.0438321009,-0.0999853611,0.14375551,0.214431286,-0.114693299,-0.0922473818,-0.248594388,-0.111582063,0.0523172468,-0.109643221,0.0347765125,0.245654568,-0.0111640617,-0.00595173426,-0.245301545,-0.000814704399,0.11951898,0.138170972,-0.134934455,-0.0373465382,-0.317046881,0.248017013,0.0471595228,-0.176298335,0.175049663,-0.029793391,-0.0558159761,-0.132114202,0.0895620957,0.016933227,-0.181102902,0.0764629319,0.0651405752,0.110502169,0.307934046,0.183773562,0.156197488,0.00950213056,-0.088002786,0.321277887,0.108715028,0.0937450007,-0.0318633839,-0.0471467115],[-0.167533427,0.0613302924,-0.0818193853,0.00818766002,-0.111330673,-0.0429711603,-0.262726218,-0.0281230398,0.0101453699,0.00285201333,0.364498854,0.0244252309,-0.139177904,-0.183365047,0.152507499,-0.016933443,0.0607985035,0.192088068,-0.0380928479,-0.121527933,-0.0110003231,0.186274052,0.0374939479,-0.0792640969,-0.0138780754,0.0368264616,0.0429175869,-0.129149973,0.0130428458,0.0741572827,0.197666511,0.290314436,0.0702555552,0.212559491,-0.211189032,0.107839204,0.23295486,-0.0306834225,0.122669421,-0.0808000192,-0.157819241,-0.138152674,-0.00444303034,0.0361868218,-0.0957151949,-0.0420442745,-0.202188149,0.0896688476,0.155438989,0.146646038,0.203037694,-0.214017585,-0.100942716,-0.174181774,-0.116465248,-0.0756228119,0.146429434,-0.226499245,-0.111739203,-0.0798548833,0.127285868,0.0726037696,-0.184357405,-0.116433248],[0.050720524,0.483623832,-0.203453809,-0.186517507,-0.0275656097,-0.139314815,0.13478972,0.0722235143,-0.101124942,-0.326125443,-0.0839840695,-0.230603322,-0.136550292,-0.132442832,0.11006999,-0.166549146,-0.060492903,-0.0251714159,0.0852902457,0.124464646,-0.208427787,0.0449615791,0.0933309421,-0.0107121645,0.379463315,-0.0711498708,0.116175689,-0.323000312,0.0301946513,-0.0384409986,0.264037311,0.00940170232,0.180556417,-0.100279726,0.235512182,0.23436825,0.210939884,0.307398051,0.0348299854,0.0351696499,-0.125636652,0.357549816,-0.00111866335,-0.241044804,0.172769353,0.271686614,-0.356958926,-0.279443622,0.120968468,0.272386074,0.045385696,-0.112776183,-0.063230902,0.148656741,0.122537352,-0.156781524,-0.0650457963,0.0559911579,0.0283654612,0.0172791872,-0.00758128427,-0.317774534,0.147647947,0.11943835],[-0.125702262,-0.0673905686,0.0254939198,-0.0346974432,-0.0517504066,-0.0182983987,-0.112902902,0.108953469,0.172100663,0.139316246,0.241227716,0.138118193,-0.0248871036,-0.0109346472,0.216804028,-0.0580649562,0.282848924,0.0591391884,0.162949413,-0.0169445761,-0.142669499,0.0692896843,-0.0841233805,-0.345634907,-0.0940766558,-0.0529356413,0.0359605178,-0.359253675,-0.183528915,-0.00829271134,0.125079587,0.191745177,-0.0212466046,0.103069477,-0.0579966754,0.0957883671,0.0126229553,-0.0223726742,0.154629484,-0.00963203236,0.0857065618,0.0877646431,0.1220586,0.0266369469,-0.0432722904,-0.0383978412,-0.00267273514,0.165696979,0.161633134,0.119502418,-0.0142826028,-0.120749839,-0.116843663,-0.0832177922,-0.302511513,-0.132968634,0.0796139911,-0.217252627,-0.0511633456,-0.169647604,0.138447613,-0.116431385,-0.0013195565,0.0653989986],[0.288486838,-0.148939967,0.0480677113,0.119007096,-0.236415729,0.181404322,-0.0807288513,-0.0786127448,-0.167735279,-0.0193695072,0.254619092,0.121673189,-0.0146126878,-0.0083522303,0.202625364,-0.190186664,0.132433981,-0.0034776309,0.0558840372,0.241747409,-0.123739995,0.0995156616,0.00963725056,0.13742131,-0.0794439763,-0.0312064514,-0.0354151465,-0.361445934,0.0517959222,0.00306035578,-0.003462099,0.172621176,0.000915089855,0.198609784,-0.190533653,-0.0698798671,0.142609924,0.174354255,0.0156958606,0.0362817831,-0.213747486,0.0057415124,-0.223492458,0.0353946425,-0.0578376278,0.0314815305,0.04932395,0.0247356202,-0.118320882,0.0293670893,0.0437092893,-0.188835889,-0.0979095548,-0.0716294497,-0.0924107656,-0.0760996714,-0.0144013679,-0.080873847,0.0188481957,0.0195878204,0.138069481,0.0118616382,-0.0855177343,-0.232863739],[-0.113719098,0.0649002865,-0.166416645,0.0135899037,-0.231881693,0.0694813281,0.0585310869,0.143709108,-0.0935032815,0.075666815,-0.0341150276,0.220570832,-0.277349204,-0.0312595218,-0.0203794204,0.154597968,0.0591636635,0.253385544,-0.147692129,-0.0868615583,0.19263652,0.120846398,-0.0280095153,0.251492292,0.212510183,0.145861089,-0.110094473,-0.0723040104,0.0506975017,0.0616421662,-0.159489796,0.10880357,0.036866799,-0.0933310241,-0.0427238643,-0.131445557,-0.105356045,-0.10376101,-0.11078316,0.0876718387,-0.0317360908,0.107205942,-0.0888591185,-0.0242182221,0.000913637108,0.181036755,0.0533438548,0.0575525463,-0.0129621876,-0.288486898,0.0238527451,-0.109566934,-0.0266361423,-0.0545929372,0.102078013,-0.00796467531,0.00262756716,-0.180038929,0.0710426345,-0.197295129,0.137916788,0.0436924398,-0.0280455854,-0.0698585138],[0.0743745267,-0.0273845829,-0.0792106763,-0.0944497883,-0.133477971,-0.0408301279,0.158614099,-0.0380424336,0.170594975,0.105932184,0.141726404,-0.125091866,0.0762661323,0.0928909034,-0.0447644144,-0.0778912082,0.192776263,0.0538530275,-0.270961642,-0.0903797969,-0.0101985699,-0.250420004,-0.16573447,0.0609823912,-0.228463352,0.00784701761,0.0582684427,-0.0610074326,0.128889933,0.0662310049,-0.087296702,-0.0785384551,0.0733767673,-0.0249506403,0.0819884241,-0.0171443485,-0.00807213318,-0.0230594389,-0.220886439,0.360504627,0.117621943,-0.120553285,0.00294829835,0.011332687,0.15469633,0.120035149,0.0587279648,-0.0115058199,-0.144811422,-0.121073164,0.0466860496,0.0725757927,0.000220002054,-0.0653125644,-0.19219321,-0.00585791701,-0.0962750688,0.192899197,-0.0697189271,-0.167292848,0.0191205293,-0.102675758,0.266481668,0.0586179756],[-0.0769588947,-0.114719242,0.0572149567,-0.115552671,0.084987402,-0.316143095,-0.0195358377,0.00150762382,-0.00233086315,-0.301720917,0.0582489222,-0.0142676737,0.116808899,-0.0650199577,0.0122740734,-0.151397333,0.0675004274,-0.0215080865,0.00603922457,0.012549636,0.0208092295,0.0457111001,0.0214300454,0.0797480419,0.163519099,0.136684433,0.04970989,-0.0220646653,0.168959558,-0.0755607262,0.0948374197,-0.0425472669,0.117788486,0.10088902,0.247817546,-0.119040459,-0.107716754,0.0467542112,-0.10120213,0.0509883538,-0.0825827941,-0.164136291,-0.170129895,0.0565961972,-0.0607257523,-0.0625374541,0.0918745846,0.0215659924,0.189449444,0.162033767,0.173221886,-0.119518384,0.227618337,0.104175948,-0.12598142,-0.00427033752,-0.352282137,-0.189418688,-0.104388878,0.0704231486,-0.0384387821,0.143184632,0.0975033119,0.0045209513],[-0.0402835384,0.165721431,-0.100797139,0.0366730466,0.0163104162,-0.116295025,-0.0446556769,-0.342532426,-0.117262229,0.148428008,-0.0933617055,0.148006305,0.0291944016,0.12663801,-0.0744276568,-0.177822411,-0.089028053,0.0342844464,-0.0454037972,0.284177572,-0.0802752823,-0.0263324585,0.121296898,-0.0712933838,0.00739173172,0.103611372,0.0089458134,0.0335119069,0.104889452,0.226768404,-0.0941591635,0.223039076,-0.031525638,0.163627207,-0.143359035,0.130422488,-0.213754818,-0.00744014047,-0.0231606066,-0.14270699,-0.120110348,0.0488243736,0.126355767,0.0230161324,-0.13267462,0.0498436466,0.0178920012,-0.0698189735,0.00230552838,-0.046970807,-0.25352791,-0.0398167521,0.0386443101,-0.0909748822,0.172356814,-0.0385694019,0.0887759328,0.0277764853,0.0401195586,0.0736635551,-0.255374104,-0.167610854,-0.142805427,0.0409195535],[-0.210762441,-0.0923958644,-0.0324157663,0.0646688566,0.0947954133,0.0715666413,0.0577049255,-0.183757886,0.154223189,0.0109235309,-0.0543524027,-0.0267770346,0.0196338091,0.0795886964,-0.0659325495,0.114918806,-0.0890298113,-0.128847912,0.0661429688,-0.0986470804,-0.107559301,0.052386757,0.167853937,0.0219609849,-0.0760495067,0.146958217,-0.0149584198,0.00447910605,-0.0971044004,0.156582087,0.00811540335,0.212134257,-0.101575203,-0.0511609092,0.129367441,-0.354912728,-0.0203568656,0.111481674,0.156143486,0.0497826263,0.365298897,-0.0369245894,-0.358893126,0.0240144078,0.102194488,0.154943332,-0.00046357431,-0.0307358075,0.0272063874,0.0243767835,0.073204428,0.0796558559,-0.0436993912,-0.0809060708,0.147990674,-0.00564124808,0.0165948328,-0.106189422,-0.132601723,0.00611248193,0.0278441925,-0.147727758,-0.128908023,0.068482466],[-0.177507788,0.0134693738,0.206551641,0.0735733211,-0.021591058,-0.102135785,0.0307391994,-0.141313523,-0.222975895,-0.323949367,-0.0733577311,0.0203561317,0.253757775,0.0719432086,0.267749906,-0.04252569,-0.170315117,0.0449797697,-0.159239486,0.0754973292,0.195395738,-0.0561712533,0.0946890488,0.164786652,-0.186675876,-0.00137628079,0.0508953854,0.119466126,0.00895373337,0.0267919209,-0.122811154,-0.0725907087,-0.0255159382,-0.115549974,0.0396705419,0.0601496436,0.024104977,-0.0301966406,-0.0428530015,0.150098264,-0.0582470968,0.0163143091,-0.198335364,0.0052994811,0.144286186,0.0379960835,0.0224292055,-0.271477908,-0.0927143022,0.0201616064,-0.250347704,0.0556104295,-0.00633224379,-0.02610722,0.191839606,-0.0594417825,-0.0986033008,0.0919624418,-0.0761615783,-0.0862401649,-0.0818627924,0.166852266,0.183562219,0.0975071192],[-0.00654086936,-0.0419178419,0.0501419269,0.0394831337,-0.0727468133,-0.0801973194,-0.20395349,-0.0351776145,-0.0879108533,0.00908330735,-0.125649065,0.160772443,0.0770668164,0.0399001986,-0.0107653569,-0.151321143,-0.107785203,-0.0831988901,-0.125153169,0.223836213,-0.109484047,0.0405426063,-0.0473631062,-0.14344199,-0.309306264,0.075101763,0.118560493,-0.153230965,0.0962431356,-0.0476261787,-0.0529294126,0.0427396074,-0.134155497,0.0466809124,0.196625233,0.0519021042,-0.282318503,0.0416913852,-0.253026992,0.179369584,0.165303528,0.121338278,0.00609592069,-0.0256536435,0.242495313,0.0765335113,0.086096637,0.165299565,-0.0279094987,0.0720595643,0.067736201,-0.0767872259,0.00709602982,0.151291683,-0.126707762,0.00454681739,-0.00831500161,-0.121829599,0.272602797,0.126118422,-0.00350412773,0.0299497526,-0.0705491304,0.19520548],[0.0434657969,0.0402401127,-0.0941510722,0.0490389802,-6.73347968e-05,-0.0173549075,-0.1392086,-0.185304374,-0.110012785,0.0622388013,-0.0573373027,0.0617411621,0.0946622938,-0.00336733647,0.0251534153,0.116603658,0.202361748,-0.00548009668,0.0711027607,-0.168991104,-0.211923212,-0.13446331,0.127454847,-0.140879065,-0.0191931129,-0.115302727,-0.115680777,-0.0183523409,0.0398837179,0.193438172,0.0173397008,-0.0581979528,0.0688289404,-0.00618100399,-0.111362055,0.09840101,0.317853153,-0.201279655,-0.121998034,0.337249279,0.0923071355,0.0213950314,-0.147634432,0.0422645994,-0.136031568,-0.0271916781,-0.0315344818,-0.155862287,0.0271713864,0.0415607058,0.078753002,0.121505126,0.0718022957,-0.0198482256,-0.290069848,-0.00238306983,0.054424569,-0.0845668763,-0.275166243,-0.0666076764,-0.0240779575,0.177596971,-0.0636156201,0.00481643761],[0.137924165,-0.0463729501,0.222939953,0.0339082144,0.100869678,-0.106545374,0.0528473333,-0.0417205952,0.045756299,0.184262916,0.0619903393,-0.0330588557,-0.015761679,-0.0174027216,-0.0371030644,0.0929538161,0.0751575902,0.0793994293,0.0826473087,-0.0425994955,0.288790166,0.297738254,0.00725983875,0.163188487,0.117888726,-0.114955626,-0.0446196608,0.084440127,-0.152407512,0.1442388,-0.00858665165,-0.0434798151,-0.111013807,-0.120290697,0.000833533704,-0.0375926085,-0.0163953751,0.150386691,-0.253693998,-0.0157862846,-0.152073592,0.134587511,0.0550572053,0.0291082524,-0.0859279707,-0.105333567,-0.05791381,-0.0714413524,-0.0772665888,-0.04951372,0.282284409,-0.214067549,0.0741305053,0.0544376448,0.1142639,-0.0561163835,0.024099756,-0.0367192402,-0.190431088,-0.185124353,0.0945075154,-0.257701486,-0.17452015,0.13184081],[-0.136439547,0.0405433625,-0.0370706879,-0.0877744183,-0.231686831,0.137259007,-0.210888162,-0.0150002511,0.145768791,0.135881677,0.0114438981,0.0639012605,0.186539903,-0.0604897179,0.140665799,-0.0335388891,-0.0945337638,-0.153219059,0.18937546,0.255049288,-0.0755917281,-0.0278840195,0.00916219875,-0.232278064,-0.186692253,-0.150235474,0.0735006407,-0.221442059,0.301173151,-0.0970927775,-0.0846365467,0.0622003935,0.130434424,0.11850515,-0.134996131,0.175999433,-0.0506591462,-0.182839289,-0.00957464613,0.178776309,-0.187329516,0.116088338,0.202782661,0.0796750858,0.0292119309,-0.0918100476,-0.00458905473,-0.0553892516,-0.103607856,-0.0464106239,-0.0884566158,-0.0434121601,0.0280470494,-0.184540078,-0.015765138,0.035782557,-0.021329131,0.155155927,0.0317922793,-0.17812708,0.0703071803,0.0122226477,0.0572693758,-0.0825710967],[0.220947728,0.0642622113,0.133230031,0.0330967493,-0.182388037,-0.124941982,0.0981140137,0.128147095,0.0710815713,-0.135545939,0.0949721038,0.0141129959,0.16324994,-0.0151221938,-0.17660071,0.0456937775,0.136363223,0.102080502,-0.160840973,0.161100373,-0.176727757,-0.0328011513,-0.0885281041,-0.0592611954,-0.0519331321,0.133389115,-0.00604959344,0.085313186,-0.065984264,0.260251105,-0.0207058564,0.00726468861,-0.00757754594,-0.124739036,-0.217998251,0.228402942,-0.0712195784,-0.211317986,0.200422287,-0.0667725801,0.193733901,0.0895819068,0.0110560302,0.0426175967,0.139761224,-0.0185375344,-0.0221400838,-0.0285392534,0.107090861,-0.114522234,-0.0425392687,0.239531025,0.0745898932,0.0884625465,-0.0803663135,-0.0781708136,-0.0917224213,-0.118175909,0.130176157,-0.171757415,-0.156203344,-0.0522162281,-0.265378445,0.0222758763],[-0.131704167,0.0223030671,-0.00648494298,-0.110584386,0.0441963598,-0.0978588164,-0.19227922,-0.139391288,0.179246381,-0.116043545,-0.257240176,-0.079742685,-0.0177756436,0.125287205,0.0341070965,0.262165815,0.199881807,0.0653564483,0.167141467,0.144854933,0.123553149,-0.254540533,-0.107741803,-0.131243408,0.1425789,0.000387952139,-0.017122712,0.178771988,0.315931022,0.000272920675,0.160019383,-0.0314811729,0.00941188633,-0.0307953171,-0.164993554,-0.112812713,-0.224403873,0.0873092115,-0.140229076,-0.0894372389,0.169166595,0.0103066554,0.0647047833,0.0535692871,-0.105682112,0.0695956126,0.0494939163,0.018871462,0.0248281732,-0.0540739521,-0.0537895598,-0.0110375779,0.0296344534,-0.0281237047,-0.0876588002,0.00597565249,0.0202601831,-0.158560991,-0.198129103,0.0394161493,-0.13674061,-0.04739663,0.202526942,-0.0480679162],[-0.192599386,-0.0488213338,0.0666174367,-0.162556291,0.170567691,0.123304479,0.0704259276,0.108572125,-0.180332989,0.0687036738,0.121091567,-0.159858495,-0.151078582,-0.0534736738,0.181329474,-0.117039852,0.0237569436,0.1196118,-0.0381846428,0.0967552513,0.00978429988,-0.0123083154,0.0622852743,-0.252944082,-0.0509634688,0.0980631411,-0.0506169647,0.0506178588,0.0652794838,0.0276520886,0.116296954,0.00115105917,-0.0212486144,0.129452825,-0.0897623152,-0.148637727,0.137196973,-0.235827908,0.0145041188,0.308347344,0.0479740836,0.0458700433,0.122175917,0.11115136,-0.02510993,0.131645918,-0.0861298889,-0.0927227661,0.02377587,-0.0805422217,-0.0978948921,-0.0900955498,0.18053785,0.0705465823,-0.173570678,0.00191659667,0.0194412898,0.169158295,0.0943212509,-0.189104035,-0.0628888533,-0.285565197,0.104508057,0.210692495],[0.31311506,-0.010144637,-0.138199553,-0.0940823555,-0.0734581873,0.109909914,0.00755869551,-0.279121101,0.0523088537,-0.149287507,0.0520799421,-0.0179292932,0.169843316,0.11465396,-0.0218232945,0.111159004,-0.183180153,-0.140870541,0.0180111062,0.0968828499,0.189933762,-0.135460109,-0.0671279207,-0.123485371,0.069008328,0.0738143176,-0.0422453061,0.0694383457,0.113971457,-0.060090594,0.00707191043,0.137414977,-0.0427900106,0.00441873772,-0.213166818,-0.107729569,0.182874978,-0.059797734,-0.310622305,0.102583058,-0.0924941152,-0.0583418347,0.00882248208,0.050954219,0.0199893899,0.183357984,0.156548962,0.203274608,-0.103477322,-0.18424511,-0.0241534151,-0.180418193,0.0418523774,0.0946815759,0.0048864712,-0.0192042701,-0.0492736176,-0.0724053457,-0.0210204665,0.119817592,-0.0097093014,0.157642663,-0.133213952,-0.113833539],[0.0794070363,-0.113202564,0.0632964894,-0.0409000516,-0.2973032,-0.0973410606,-0.0168899409,-0.0365565903,0.228198677,0.255406141,-0.0418832116,-0.246478483,0.0403927118,-0.0668380335,-0.0456426255,0.0387400687,-0.0240248535,-0.155882895,-0.00517866062,-0.119380914,0.118318647,0.0333665349,0.200393498,0.0690221712,-0.109286822,-0.0149447806,-0.0555506721,0.129847482,-0.0134644676,-0.0135921305,-0.206230417,0.194329381,0.0334810242,-0.0885669515,0.0214411523,0.0267279726,-0.0412776433,0.0466462523,-0.157562152,-0.0139557505,-0.0525044352,0.236566871,0.0610568896,-0.0176849999,-0.0752812102,0.074133262,-0.144465178,-0.0191391427,0.21064657,-0.0368900113,-0.0428605266,-0.00186908711,-0.0663564578,-0.191378191,0.0480991788,0.00274308096,0.118005805,-0.147740677,0.255784124,-0.207400665,0.122495823,0.0425058119,0.206059411,0.0778110623],[-0.27423206,-0.028420141,0.173667312,-0.182130203,-0.134082243,-0.176498041,0.184317365,-0.120631494,0.0838939995,-0.0992090702,-0.0935726464,0.142828032,0.124199875,-0.0397281162,-0.245798096,0.0226635821,0.0798958018,-0.0794621632,0.0689129308,-0.163067788,-0.249911711,-0.0360853076,-0.158385873,-0.0482383184,0.0294001587,0.115057744,0.0968941897,0.0698043928,0.128929973,-0.0840990618,0.00927026942,-0.23370038,0.136416301,0.00757897645,-0.0109286699,-0.0182668064,-0.0824827552,-0.234085768,0.00891992636,0.316108048,0.0590094812,0.139707729,0.1472992,-0.0105609177,0.146227509,0.0661307871,0.0907400697,0.0987734422,-0.0214990396,0.0906219557,-0.1075022,-0.00913087465,0.142832935,-0.0351411924,0.180854723,0.0405535996,-0.042944137,0.145832852,-0.0599577948,-0.0498800464,-0.120330438,-0.0258759614,-0.0468602777,-0.00946202409],[0.0859095082,0.0252652727,-0.0366636179,-0.0861316472,-0.174762443,-0.0593815893,0.0491636805,0.115663789,-0.0631404221,-0.101190031,0.11793156,-0.151832938,0.0362317041,-0.0526312552,-0.26993829,-0.138473362,-0.0881865397,0.193095818,-0.215446189,0.27447471,0.160892591,-0.110723704,-0.0241113212,0.162373051,-0.24652642,-0.121793047,0.0983522609,-0.087468937,0.117649958,-0.113327667,-0.00976321939,-0.137701377,0.0822450295,0.0691151023,-0.202404261,-0.0727286041,-0.18744418,-0.00976832863,-0.0527179018,0.0659692064,-0.226193056,0.160257027,-0.0857985988,0.119943962,0.0447134301,-0.151403457,0.266322404,0.040057458,-0.0612123981,-0.149781629,-0.00392763782,-0.12553893,0.0206108205,-0.109804809,0.110240549,0.0577734709,-0.0524670407,-0.0253935587,0.206534848,-0.0576680675,0.0907329991,-0.0447994806,0.262812018,-0.0548474751],[0.0861296132,-0.108130425,0.10388954,-0.0522646569,0.222149149,0.0677274019,0.0324599668,-0.212520048,-0.205328569,0.161619991,0.184143707,-0.192535922,-0.0513360836,0.0293767601,0.0336650088,0.0564708561,0.135889515,-0.0569702238,-0.132948339,0.0510980859,-0.102274269,-0.153745368,0.00301496987,-0.0624783076,-0.0802036002,-0.0554314777,-0.0544380508,-0.0315567553,0.138789803,0.0813270509,-0.0631105751,-0.0676983073,0.150052741,-0.114452414,-0.285072774,0.0522616543,-0.306142807,0.113052428,-0.0104068154,0.0865987912,0.188225836,-0.0721105635,0.0961043611,0.0600157864,-0.0116958562,-0.00744053721,0.0128111904,-0.114297062,0.1269418,-0.143886983,-0.0582331568,0.113884427,0.154768497,0.0948199481,0.219005823,0.0324417241,-0.120559171,-0.089955084,-0.060523238,0.107371382,0.188589588,0.0381098464,-0.115815938,-0.165133923],[0.0101909088,-0.123766258,0.347398311,-0.0398929641,0.0123261865,-0.111907981,0.00021520158,-0.228964746,-0.177349836,0.152609363,0.189122647,0.041477941,-0.221206591,-0.167208582,0.0444791541,0.0830627754,-0.224704295,0.0740400031,0.0507878959,0.0510214604,-0.0899127796,-0.168386221,-0.166364402,-0.0525985882,-0.125391856,0.0288573969,0.0179447755,0.154881567,-0.218601748,-0.00921939965,0.0761393681,-0.00737564685,-0.01762316,-0.0997375697,-0.0342910811,0.0106701218,0.167689845,-0.00749260141,-0.00203899201,0.136279136,0.110161446,0.00384573685,0.123940088,-0.00943766255,-0.0921345577,0.0480283685,0.0501651429,0.273306638,0.12943092,0.139165953,-0.0265786033,0.0918172523,0.0204226952,-0.0765536949,0.0810892209,0.0808939189,-0.138377219,-0.194573194,-0.0371203274,0.0259093642,-0.123308934,0.113789305,0.175718009,0.0766165406],[-0.134314492,0.0461836606,-0.228998825,-0.081103541,0.179952607,-0.17212145,-0.0145488754,-0.126700714,-0.101686157,0.196437716,0.194435194,0.12358813,0.100176118,-0.0328096487,-0.0639841482,-0.134157509,-0.18095316,0.000708809297,-0.184217572,0.0607573055,0.102687806,0.0552511103,-0.0555757731,-0.00651772507,0.175697997,0.0758414418,-0.0449710637,0.164758101,0.0434418768,-0.0891076028,0.047698196,0.156437486,-0.0114124231,0.0250477176,0.100664794,0.208939597,-0.0438028947,-0.0995986387,-0.000861355278,-0.0401639156,0.0797692165,-0.087828055,0.172724903,-0.000109405795,0.00872480404,0.102052182,-0.0582384989,-0.0079022171,0.157577723,0.263377398,-0.0945202857,-0.219473347,-0.0911066383,0.155754492,-0.13129437,-0.0283976272,-0.0568824299,-0.217649415,-0.183464333,-0.0483353734,0.143852383,0.116740093,-0.135874763,0.0650916174],[-0.0338058956,-0.054129038,0.0613075458,-0.0324051343,0.0836539492,0.165935665,0.0396373756,-0.0747318342,-0.0753340572,-0.037296053,-0.205564782,0.0790005028,-0.110686116,0.0341245867,0.206428424,0.374058872,-0.018225858,-0.0447810739,0.207920104,-0.160720795,0.0781089813,0.147678986,-0.171359777,-0.0232052356,0.0856246576,0.141055062,0.0160716437,-0.143307567,-0.049478963,0.0372774117,-0.0683677197,0.13796927,-0.045578856,-0.328609824,0.194660023,0.0672664046,-0.0669686794,-0.060136836,-0.136879399,0.034574654,-0.108771302,-0.150795326,0.0704591945,-0.0595406964,-0.0997035801,-0.121188991,0.0256838314,-0.14325726,0.268887728,0.155085057,-0.0472779758,-0.0858086944,0.0560487248,-0.031394504,0.15937309,-0.0581147857,0.00853640027,-0.00583880302,0.0936735421,-0.0255393721,0.0233750921,-0.0436925218,-0.207483187,0.179651558],[-0.0588318296,0.0391123183,0.12486171,-0.000555393402,0.195165709,-0.106970884,-0.0308185946,0.0150976153,-0.091986753,-0.154679701,-0.0523280241,0.0452424251,0.134625673,-0.0328286067,-0.148231655,0.0552150346,0.289615959,0.0725237429,-0.0181197338,-0.0286604743,0.227358207,0.00505466433,-0.0248826258,-0.176521853,-0.144845635,0.0105054071,0.00851444528,-0.0761956125,-0.231909424,-0.119652376,-0.0447227843,-0.0240913592,0.0233797021,0.240015104,-0.132847041,0.2811023,0.12942937,-0.0816217139,-0.134709626,0.0635182261,-0.0534504279,-0.207774222,0.0666737407,-0.0644597933,0.131057233,0.168468162,0.181263968,0.107183538,-0.122103669,-0.216632351,-0.213557526,-0.0607337281,-0.0425088294,0.0513544455,0.218819335,-0.04415223,0.0468863249,-0.140803725,-0.00699717971,-0.163212478,0.0115286876,-0.0803060085,0.0747771636,0.177758098],[0.0102483779,0.0473350324,0.191524878,-0.0587851331,-0.00878673326,-0.050830394,-0.124677084,-0.115338467,0.0612933896,0.0115189832,0.166727677,0.230673119,0.0916668475,0.198883444,0.18408601,-0.0634404644,0.287976474,-0.0465809368,0.110177606,0.114120714,-0.0383723266,0.152246118,0.11277204,-0.14053452,-0.0764774755,-0.069063127,0.0191554055,-0.132430837,-0.194840744,-0.0782806054,-0.164830253,-0.138086855,-0.0322339535,0.0619550757,0.115951017,0.143663526,0.0865927041,-0.0118519636,0.144206643,-0.031410154,0.264162242,0.0419733934,-0.00382107683,0.0863366053,0.0598063543,0.139220327,-0.136655197,-0.110833324,0.00984785799,0.119367585,-0.121762477,-0.206993416,-0.0193197858,-0.0732434988,-0.0991019979,-0.100623548,-0.0609956272,-0.178758487,-0.156092942,-0.10571754,-0.00752454437,-0.108690895,-0.0878423899,-0.184879601],[0.0861999542,-0.0242794678,0.0435735844,0.0527229272,0.0220473483,0.0422333144,0.0509188063,-0.165461138,-0.160296604,-0.21406655,9.81666235e-05,0.239018798,0.17780152,-0.161126703,-0.0387587473,0.063003242,-0.0314334221,-0.111236788,0.0384254903,-0.09557648,-0.0521258153,-0.223291665,0.130780041,0.0234011933,0.0270535294,0.346947163,-0.0722518787,-0.0244599171,-0.351956666,-0.0948673487,0.0337069891,-0.0578674115,-0.00721664121,-0.0731955096,0.1522118,0.0802479833,0.154750437,-0.143840283,0.00518198637,0.0949016288,-0.00897631608,0.0543146729,-0.186823145,0.00257347128,-0.0453213528,0.115763657,0.172972098,-0.0253451131,0.112813391,0.186025068,0.0261630826,0.0296893995,-0.118526362,-0.0871291235,-0.0367001779,0.0692220703,-0.0376745947,0.046109952,0.110023513,-0.046738185,-0.140061542,0.194042265,-0.155644834,0.123926021],[0.0915867984,-0.0156296361,0.187589407,0.0962834954,0.039600376,0.154678032,-0.0865650848,-0.170948714,0.0330412611,0.183107078,0.188127816,-0.0860964209,-0.0658165738,-0.00824561436,-0.0708053261,-0.0862575844,0.219157815,0.0525830984,-0.0127606457,0.322933108,-0.202191472,0.0524558611,-0.140456334,0.173246101,0.085137628,0.122669682,-0.0662738159,0.211401343,0.0609199964,-0.0567002855,0.0709937438,0.104838468,-0.092208229,0.0909632072,0.139934108,0.0967786983,-0.0283378735,-0.00437263073,-0.156987339,0.121230431,-0.144948721,0.260472268,-0.286824971,0.00385525171,0.0837598816,-0.159678921,0.00382406777,0.0346601717,-0.155958146,-0.0022709053,0.0131833311,-0.0730297714,-0.0475541763,0.0060873949,-0.267724633,0.012542461,-0.111690313,-0.00334696076,-0.094751887,0.00642656162,-0.0754698068,0.00232052733,-0.0873623937,-0.192011476],[-0.0396350175,-0.0949514285,0.127736986,0.014665856,0.138458088,-0.0853762329,0.177429557,0.315954775,0.0926921591,-0.228800073,0.270403683,0.0451985151,-0.202615649,-0.0400329642,-0.159328014,0.23138687,0.104797125,0.0625255853,-0.0581304207,0.0802097768,0.104312502,-0.0424278192,0.0524169505,-0.188473701,-0.0476396605,0.0427837633,-0.107282318,0.0567801446,-0.0192288496,0.0667908788,0.0700109378,0.0204402376,-0.0997961909,0.170950174,-0.331139386,0.276980489,0.128782257,-0.119265184,-0.00216897111,-0.132416487,0.214961335,-0.206037849,-0.0139037464,-0.0214523878,0.10998112,-0.11433997,-0.225421369,0.188031524,0.0363776274,-0.319232911,-0.151979715,0.00908217579,0.0651844591,0.189310193,-0.0647736192,-0.0851182044,0.0683403984,-0.338339597,-0.0986202359,-0.186587006,0.0795788988,0.196089342,-0.094112061,0.0873765126],[0.281471312,0.1456047,0.0817053318,0.0877350494,-0.0774877891,0.0779345855,0.153564274,-0.16426532,-0.025182154,-0.161733404,-0.148156658,-0.0898518041,0.149566576,0.0596183464,0.0929573178,-0.0612064898,-0.153332576,-0.0594137199,-0.00820861291,-0.139714345,0.108646452,-0.131398097,-0.0294074398,0.0237751342,0.199549541,0.126512676,-0.0188953113,-0.204897359,-0.0441688746,-0.0111317569,0.0372868627,-0.200745374,-0.0393982194,-0.102557026,-0.161699891,0.136467203,-0.29608655,0.18997623,0.19143261,-0.0307137016,-0.126277938,-0.0310980193,0.0660381913,0.0348644666,0.0130839758,-0.154400587,0.126614541,0.0111765629,0.04532969,-0.127489343,0.0461062603,0.114706844,-0.0232581422,-0.0791623741,-0.160152256,-0.0797790736,0.0398638956,-0.170944929,0.026183309,-0.0806378201,-0.130108908,-0.0346835926,-0.0769735575,0.000675952062],[0.0558234416,0.0594376922,0.00911755767,0.154225796,0.00109736598,0.0354310386,-0.0228272323,0.00859753415,-0.0151753277,-0.0726080462,0.174056172,0.0511783361,0.113632582,-0.189388305,-0.196977586,0.0311069209,0.11349351,-0.00561120268,0.157590806,0.121623956,0.114620194,0.0316906795,0.111003175,-0.0671691746,0.205613375,0.0735418051,-0.0139740659,-0.318413287,0.0980297253,0.0319072157,-0.05163325,-0.0640749186,-0.161616668,-0.329907238,0.151784867,0.147432983,-0.144674659,0.182113349,-0.0657775253,0.100484677,-0.178583354,-0.0304559842,-0.164215714,-0.0360135771,0.006264959,-0.00562359719,0.0183504149,0.0369478129,-0.0932001248,0.00345897744,0.391536772,-0.0697986111,-0.168202296,0.162565902,0.211547732,-0.0160716455,0.108838849,0.246698618,0.0661293343,-0.1335399,-0.155447751,-0.129300833,-0.00139987946,-0.0281844735],[0.0920892879,-0.12600708,-0.168232605,0.120744482,0.0714434013,-0.129187837,0.0338481441,0.0193464924,0.255189121,-0.323333949,-0.0402679257,-0.243126422,0.169292912,-0.169773549,-0.0192314498,-0.139056772,0.117933013,0.164370328,0.049126368,0.247068644,-0.0227177385,-0.0839505643,0.0247545894,0.326809049,-0.0835151523,-0.15445517,-0.0718546063,-0.183272451,-0.0785773247,0.200338826,0.0946053118,-0.0196277425,-0.0621371493,-0.108891532,-0.18177411,-0.00192798034,0.095141314,0.183849156,0.148879826,-0.0345258489,-0.0808790028,0.0760106519,-0.139362738,0.0231340937,-0.14352937,-0.0171125494,0.135444388,0.128350839,-0.0626008138,0.0598527268,0.0941390172,0.0636774972,-0.0850422084,-0.00277202181,0.100203052,-0.0271000545,0.171402499,-0.21398893,0.164961547,-0.00518901041,-0.0332140923,0.0597789399,-0.0816401392,-0.216309637],[-0.0641519278,-0.045545686,0.132937327,0.0189095959,0.0678935722,0.138885021,-0.0881278887,0.205379143,0.164535314,-0.0214903951,0.112806514,-0.233654603,0.0848568752,-0.0509907156,0.143079072,-0.247373894,0.0846856162,0.114999175,0.0337239243,-0.0196214132,0.0198385064,-0.0509311445,-0.0528471917,-0.0467065275,0.180340558,0.0419738404,0.0592819452,-0.141709611,-0.195624098,-0.036933437,0.108525172,0.126190051,0.0672508776,0.0100766448,-0.162367582,-0.0172279142,0.0290878154,-0.0679249763,0.147262976,-0.136245608,0.0276451781,0.159775108,-0.13317889,0.00474303728,-0.0354957767,0.0836341158,0.052864112,-0.1854036,-0.0840822831,-0.0727598816,-0.0346509069,0.213148788,-0.107972033,-0.180411458,0.163162887,-0.0396324545,0.106287077,-0.107285298,-0.065673247,-0.0208545122,0.0377528444,-0.302910149,-0.0399272665,0.0073547489]],"wpe.weight":[[0.113427959,1.14787328,0.197420314,-0.710392356,0.0924324319,-0.14315252,0.39686811,0.534415424,-0.0245819539,0.0946957096,-0.157077461,-0.0144746872,-0.0453593656,0.389918536,0.00411431026,-0.068471916,0.0129089588,-0.32701385,0.0993983001,0.175521165,0.341200113,-0.0226300601,0.299159795,0.0703846067,-0.478725582,-0.0616558045,-0.344565749,-0.341492265,0.0698647648,0.0866450742,0.357457459,-0.0987101346,-0.334567577,-0.0246111099,-0.264178157,0.0176081639,-0.00354809547,-0.0124188326,0.0471405573,0.109576613,-0.128102943,0.178126395,-0.465492189,-0.536583364,0.070138678,-0.229480237,-0.171277955,0.391896963,0.20836243,0.348065227,-0.16977331,0.208469048,0.0250678677,0.182550892,-0.209005848,0.557999194,-0.151691824,-0.0313735344,-0.234218225,-0.36624977,0.0498614311,0.138242975,-0.0332723185,-0.0421476513],[-0.0679900199,0.370098203,0.0458856933,-0.203243375,0.0533965044,-0.0761188269,0.00300840894,0.205504,-0.00811476074,-0.0281598754,0.0298620239,-0.00604186021,0.0512251109,0.249995664,-0.0678834543,-0.0202671662,-0.0357144326,-0.0585605912,0.00189481687,0.0378757715,-0.106001191,-0.0326222889,0.0510686077,0.0257356428,-0.0462207384,0.0480259024,-0.196033478,0.00723625952,-0.0184615348,0.0431302562,-0.00214014389,-0.0744020119,-0.278555602,0.0610052347,-0.0648476332,-0.065895617,0.105786771,0.0153747508,-0.00795522612,-0.181533933,-0.0693818033,-0.0507513732,-0.00887506921,-0.296961814,-0.0348624922,0.0149641251,-0.154914305,0.104487747,0.0412433743,0.0774866641,0.0341462977,0.0860714689,0.128024444,-0.0421308391,-0.01653051,0.248893514,-0.104734696,0.224480882,-0.0127859777,-0.0253804661,0.175432399,0.14547053,0.0185050629,-0.0381972976],[-0.0256728474,0.204001576,0.0171739236,-0.183140814,0.0536180548,-0.0489164628,0.0175709166,0.126085684,-0.00256758742,-0.0588621683,-0.00361803849,0.0419188142,0.0160921626,0.227999419,-0.000872667355,-0.018446682,-0.0201149955,-0.0375232659,0.0150272632,-0.0113480603,-0.114685304,0.00593216624,0.0711809769,0.0299243387,-0.0128616178,-0.0128224306,-0.208809897,0.0557498559,-0.0543799438,0.0541676804,-0.0251109023,-0.0396726057,-0.201997474,0.036202088,-0.0947329476,-0.00683886185,0.0459964424,0.0180559661,0.00641086278,-0.116715759,-0.0531688407,-0.0284998436,0.0204477478,-0.268578291,-0.00532722101,0.000197616639,-0.146756247,0.0773063749,0.0180305876,0.0404745787,0.0440452211,0.0340972766,0.0658234358,0.0246310197,-0.0122075072,0.255626857,-0.132484242,0.161170393,0.0468322448,0.0153745506,0.122343525,0.094587177,0.0447612479,0.0141931586],[-0.01138914,0.168397337,0.0125109823,-0.171906322,0.0127805565,-0.0227495916,0.0262818839,0.0869427845,-0.0206020474,-0.0685086772,-0.00305497949,0.0399265029,0.039153643,0.225779876,0.0129643511,0.0200972464,0.0130174076,0.00444589183,-0.0056713433,-0.00314545631,-0.124022461,0.0188669488,0.0887850448,0.0432182662,-0.000685137056,-0.0107840644,-0.211330548,0.0628210455,-0.0304628797,0.0442219488,-0.00115884398,-0.00441282056,-0.158122316,0.0539893918,-0.0587192997,-0.00874363817,0.0257812925,0.0370700657,0.0280415732,-0.0913888812,-0.0605781786,-0.014113049,0.0301948749,-0.245165914,0.0197203681,0.0253619272,-0.148174405,0.0807206482,0.036339175,0.0402714275,0.0556695983,0.0264518429,0.0562628731,0.0219595339,-0.0102216229,0.236709774,-0.14189899,0.127442345,0.0360353664,0.00760814082,0.10393548,0.0777680278,0.0558562391,0.0460557304],[-0.00154262804,0.136334971,0.00397249078,-0.172424451,-0.018123202,-0.0107175699,0.00851341989,0.0564578697,-0.0414368436,-0.0585949197,-0.00232465379,0.043408554,0.0400951169,0.201795071,-0.00507266074,0.0276393909,0.00443037506,0.0226473846,0.0052767517,0.00523550669,-0.112887383,0.00689740945,0.0766211227,0.0283280816,-0.0156665631,-0.0318645164,-0.218052879,0.0418335311,-0.0356553495,0.0181949008,0.0326338783,0.0151907699,-0.180065736,0.0399429277,-0.047177203,-0.0153383408,-0.00127925875,0.0256076977,0.00637941714,-0.0760460049,-0.0723475888,-0.0169613436,0.0233642291,-0.222637415,0.0272371918,0.0240824427,-0.15511407,0.0684456378,0.0360556804,0.0169062968,0.0534821711,0.0202172622,0.0494029075,0.00170336571,-0.00374248205,0.209653169,-0.12945801,0.105368234,0.0109872669,0.0166166723,0.0918211341,0.0585728697,0.0381056406,0.0595043488],[0.00341018639,0.126483515,1.20785407e-05,-0.166874036,-0.0160342995,-0.00446587056,0.015748499,0.0464802198,-0.0356262177,-0.0311576258,0.00508760335,0.0444188267,0.0550595671,0.186918616,-0.00602742843,0.0410832167,0.0166884325,0.0123550985,-0.0004720703,0.0100132879,-0.10980659,-0.000661216385,0.089417994,0.0396537744,-0.00414011022,-0.023718724,-0.223133519,0.0380899496,-0.0294762962,0.0155462483,0.0583365075,0.0213720594,-0.174118325,0.0402783826,-0.0456548482,-0.00687320065,0.00204936694,0.0266278442,0.0120078055,-0.0519905798,-0.0558596328,-0.0225920323,0.0123528698,-0.205912516,0.0423976742,0.0215886254,-0.14868395,0.071440421,0.0528122596,0.01759772,0.0444228761,0.0186394732,0.0706050023,0.00331307878,0.00977590587,0.187848404,-0.131300464,0.0899170339,0.0125461528,-0.00981410313,0.0887643769,0.0539905503,0.0456364006,0.0646622181],[-0.00307665928,0.123471223,0.00835087709,-0.152583659,-0.0262838174,0.00379433134,0.0217188988,0.0295283254,-0.035739895,-0.0183842294,0.01721403,0.056290362,0.0708435327,0.184084162,-0.000363192114,0.0615748391,0.0317166485,0.0232625715,0.00404351205,0.0221173428,-0.0855684131,0.00918401685,0.0826005861,0.0331983455,0.00828923192,-0.0176979527,-0.202684209,0.028060155,-0.0309153497,0.0214914922,0.0762264207,0.0236113071,-0.168284863,0.0429788493,-0.0326865017,-0.000432177883,0.0103132064,0.0298590176,0.00792878121,-0.0364057012,-0.0512347966,-0.0244638007,0.0124019841,-0.190445155,0.0670852512,0.0175569374,-0.12582621,0.0690573975,0.0585078076,0.021912219,0.0503839962,0.0224409997,0.076753661,-0.00144536956,0.0166372284,0.178324372,-0.122040138,0.0686908141,0.0248054396,-0.00964041892,0.0804636404,0.0470021553,0.0459946953,0.0627027676],[-0.0172863398,0.109333523,-0.00298604579,-0.157782912,-0.0329441018,0.00462870346,0.0386598483,-0.0124033932,-0.044019632,-0.0285631027,0.00966252293,0.0583929233,0.0616114996,0.170775577,-0.00448774733,0.0578380674,0.0297507197,0.019664444,0.00764367869,0.0254503023,-0.0912374631,0.00266376743,0.0837079957,0.0294188447,-0.00551510695,-0.0308794398,-0.207800493,0.0136292726,-0.0297364835,0.0220732242,0.0892504901,0.0212752111,-0.163539961,0.0326260813,-0.0282640476,-0.0135171963,-0.00706844637,0.00509763742,-0.00405282294,-0.0366718769,-0.0545744263,-0.00930169877,0.00640857546,-0.181544274,0.0633456707,0.0169248395,-0.132711783,0.0589186288,0.0584384501,0.0135250846,0.0373380147,0.0182413105,0.0760031566,-0.0186971165,0.00392485457,0.158511534,-0.123896122,0.0464857072,0.0123834228,-0.0165085755,0.0807255507,0.0392482094,0.0277764387,0.0652563274],[-0.0192844383,0.108410113,0.00887561869,-0.148948953,-0.0340895467,0.00559032941,0.0466103666,-0.0274607576,-0.0351358652,-0.00962954573,0.0167628732,0.0483249947,0.0783463269,0.162656844,0.00549687352,0.0702785105,0.0460385606,0.0324579999,0.00975416321,0.035842862,-0.0721898228,-0.00898301601,0.0866477937,0.0337609462,-0.0017154651,-0.0214653313,-0.187830716,0.00688677141,-0.0198493674,0.0241728164,0.106286556,0.0289558172,-0.154786706,0.0292817708,-0.0239153504,0.000684423256,-0.0132733369,0.0189642962,-0.0081696827,-0.0278744679,-0.0472503379,-0.00454579806,0.0112321675,-0.165188283,0.0804302618,0.0257044975,-0.112876348,0.0567194857,0.0753632411,0.0218771398,0.0381507762,0.0199986063,0.086174123,-0.0217142757,0.0164160002,0.153501958,-0.117618442,0.0303078685,0.026061248,-0.0409318842,0.0917168483,0.0406415649,0.032724604,0.0706113502],[-0.0162957497,0.096961312,0.00191496138,-0.141355634,-0.04468612,-5.3203883e-05,0.0438708626,-0.0487770513,-0.0341052972,-0.00145513017,0.0177445114,0.0409909673,0.0744799078,0.141501531,-0.00111715007,0.0636822954,0.0441875495,0.0242703278,-0.00635910174,0.0236941949,-0.0672069415,-0.0171427969,0.0787687302,0.0265249126,0.00245169224,-0.0412415229,-0.182926714,-0.0121647185,-0.02490988,0.0233767219,0.0978456214,0.0232608952,-0.153951406,0.0235773772,-0.0314281136,-0.00859366823,-0.0145414677,0.0272256061,-0.0111912396,-0.0211714394,-0.0433892794,-0.00783444941,-0.0119312508,-0.155979052,0.0711393133,0.0176348854,-0.11140205,0.047826875,0.0705218911,0.0064594103,0.0200033635,0.0134460274,0.0849297866,-0.0200983621,0.00465925504,0.139901638,-0.118393436,0.0149088223,0.0193471704,-0.0481200367,0.0802351907,0.0210381821,0.0326963216,0.0700831264],[-0.0157512166,0.0905263945,0.00624386873,-0.131519958,-0.0397184044,0.014845226,0.0471892431,-0.0637495071,-0.0318307467,-0.00475104433,0.0252447017,0.0455064289,0.0693220347,0.136916801,-0.0042140577,0.0590656586,0.0466420352,0.0322936215,-0.00438137399,0.0485964529,-0.0606953278,-0.0208686683,0.07931979,0.0313202962,0.00258833519,-0.030057352,-0.16786465,-0.00365863601,-0.0275758952,0.0245635714,0.102884158,0.013109467,-0.14298898,0.0387260839,-0.0216450058,-0.00962265115,-0.0110988943,0.0253756959,-0.0173205547,-0.0126499841,-0.0487500727,0.0027301705,-0.00772595406,-0.145043239,0.0789911896,0.0204669833,-0.101191148,0.0414179042,0.0876560584,0.0150857391,0.0230928119,0.0164669324,0.0844188705,-0.0201391038,0.0146513106,0.134669796,-0.107668936,-0.00587756466,0.0188097358,-0.0543625057,0.0856241062,0.0259306859,0.0237076879,0.0570571236],[-0.0109722633,0.0884733573,0.00750857824,-0.127167255,-0.0446258932,0.0102321878,0.0549243502,-0.0782679692,-0.0251089577,-0.00538903475,0.0278747045,0.048356317,0.077542752,0.130474478,-0.00325274095,0.0726787075,0.0547556318,0.0461293757,0.000852100435,0.0438763388,-0.0487956107,-0.0174745172,0.0838606134,0.0202850197,0.012353898,-0.0285236258,-0.159824044,-0.00608477695,-0.0205450524,0.0357059054,0.103361055,0.0200855937,-0.138271555,0.0244781133,-0.0198138207,-0.00981613621,-0.018275626,0.0202632174,-0.0240902193,-0.00442735804,-0.0349302553,-0.000198920679,-0.0181733202,-0.134333462,0.0779407546,0.0121956645,-0.0945369452,0.0335521773,0.0889651775,0.020196164,0.0202631056,0.00436001876,0.0795502588,-0.00169635972,0.0247404464,0.13150458,-0.111154161,-0.0208759792,0.011011404,-0.0681163743,0.0834080651,0.0166059174,0.0320605338,0.0711237937],[-0.0221881736,0.0909897834,0.00724722026,-0.118906833,-0.0552999675,0.0191352144,0.0639715493,-0.0950897709,-0.020070564,0.00146263442,0.034394253,0.0441179499,0.0792298317,0.127478942,0.00214875862,0.0661257803,0.0467264317,0.0479385853,0.00466467114,0.0547051765,-0.0337747261,-0.0319258198,0.0785939023,0.0312149227,0.0147477379,-0.028477639,-0.144985616,-0.0187565703,-0.00996225141,0.0384487994,0.1047047,0.0238703284,-0.123512171,0.0261287279,-0.00682324823,-0.00801330339,-0.0189466961,0.0184496976,-0.0170518197,0.00212128204,-0.0366050862,0.00582678057,-0.00415454526,-0.12036293,0.0774714947,0.0183315873,-0.0798824355,0.048566509,0.0871027708,0.0259713791,0.0151807014,0.0107598966,0.0871952549,-0.013077342,0.0259201601,0.128093868,-0.0935464576,-0.0341142379,0.0271957424,-0.0737353936,0.0887919217,0.0253484026,0.0163577665,0.0787330791],[-0.0251019746,0.0742249638,0.0122853043,-0.121362343,-0.0529494211,0.0123568708,0.0555099323,-0.106255881,-0.0182306785,-0.00407669647,0.0375858359,0.0260922443,0.066983588,0.113284081,-0.0045629777,0.0673402846,0.0487041585,0.0386065803,-0.00928968471,0.0453289524,-0.0404540971,-0.0387446992,0.0609550774,0.00641636411,0.0162972994,-0.0308864899,-0.146350726,-0.0282385834,-0.0231817402,0.0249608625,0.100296549,0.0152937956,-0.13032797,0.0208136216,-0.0204196405,-0.0183254685,-0.00944339111,0.0141296387,-0.0308907181,0.00639025262,-0.0382798687,0.00109354639,-0.0137217455,-0.124033459,0.0628204718,0.00782604516,-0.0825774744,0.026128307,0.0831216946,0.0191324987,0.00416643079,0.000962970778,0.0839766115,-0.0140478034,0.0118061192,0.112457097,-0.0971713439,-0.0544215888,0.0205611121,-0.0890368894,0.0779474676,0.0156227285,0.00704263663,0.069422707],[-0.0240023565,0.0701863915,0.0107029397,-0.111410566,-0.0552309379,0.0168720186,0.0555249713,-0.126869082,-0.0161279738,0.00140202674,0.0353852995,0.0374161415,0.0651694909,0.104376286,-0.0103361765,0.0650908649,0.04689705,0.0317937806,-0.0086194789,0.0478479713,-0.032954827,-0.0380084291,0.0737898424,0.0133103468,0.0169052295,-0.0285594221,-0.129610464,-0.0245268345,-0.018886786,0.0302986354,0.1055931,0.0220839437,-0.120420083,0.0130762039,-0.00946968701,-0.0177811068,-0.022546269,0.0211719442,-0.0273497943,0.0164855495,-0.0374120064,0.0148915611,-0.0163203795,-0.112684608,0.0775735825,0.0175925121,-0.0714519322,0.0189904962,0.072523877,0.0103381593,0.0127671193,-3.19225292e-05,0.0781444684,-0.010864079,0.0195150394,0.109885722,-0.0895116255,-0.0675592944,0.024939267,-0.0961669981,0.062242873,0.00899872556,0.0171396378,0.0697187185],[-0.0249550305,0.069053486,0.01109026,-0.108032562,-0.0509582125,0.0218993835,0.0603000782,-0.135986105,-0.018482089,-0.000224247851,0.0396589898,0.0380674191,0.0702072904,0.0979400277,-0.00815808494,0.0537060276,0.0448238999,0.0301662944,-0.0109637305,0.0473556258,-0.0263269432,-0.0425641015,0.0572590567,0.0110777542,0.0243215039,-0.0233256053,-0.123720244,-0.0293640587,-0.0145552559,0.031466756,0.100545898,0.0192792844,-0.113057464,0.017379323,-0.00185953267,-0.0187087171,-0.0226996969,0.0158825219,-0.0274119936,0.0199113972,-0.0349825993,0.00852712337,-0.0269918516,-0.104459375,0.0664605573,0.0106557868,-0.0727642328,0.0140552316,0.0804939717,0.0143939294,-0.00188500306,-0.00206360687,0.0786702707,-0.00939747039,0.00775986537,0.101093546,-0.079809472,-0.0738476589,0.0269754324,-0.109462179,0.0694678053,0.00082264829,0.0150152771,0.0693537965],[-0.0327464975,0.0662937015,0.016053278,-0.0956061035,-0.0549063906,0.0291018859,0.0610133819,-0.136248559,-0.017257778,-0.00134498242,0.0407309532,0.0321100876,0.0664732531,0.0964101329,-0.00122231024,0.0555952489,0.0427673534,0.0306766909,0.00332589308,0.0576285534,-0.013282218,-0.0423143692,0.0549411997,0.00944690872,0.0303662512,-0.0244267322,-0.112418517,-0.0313151553,-0.0084915841,0.0408025011,0.0947337821,0.0267571732,-0.106427684,0.0135553656,-0.00161619519,-0.00758043444,-0.0212813411,0.0192976668,-0.0300439689,0.0331393592,-0.0308291074,0.0209088717,-0.015560424,-0.0941092297,0.0730709136,0.0101344017,-0.054534249,0.0208340995,0.0827222168,0.0215787813,0.0045543774,0.00309574511,0.076474674,-0.014305138,0.0204663333,0.0961004272,-0.0756180063,-0.0831425264,0.022381844,-0.106447928,0.0700600669,0.0020718677,0.00548597891,0.0617634952],[-0.0382107124,0.0706110746,0.0153072039,-0.0901401639,-0.0597486161,0.0210063942,0.059422005,-0.145316377,-0.0102861039,-0.00227331091,0.0442847051,0.0373598672,0.0723281875,0.0871555805,-0.00968526769,0.0541446656,0.0396795683,0.0311800614,-0.00948360469,0.0653064102,-0.0202129111,-0.0382827409,0.0524723716,0.0118423114,0.0339997485,-0.0207062569,-0.0979398042,-0.0400902182,0.00382849248,0.0407607742,0.0902687907,0.0287998095,-0.0953036919,0.0126722343,0.00160958292,-0.00974301621,-0.00990390033,0.0209028032,-0.0194395371,0.0386012085,-0.0245997179,0.0193569176,-0.0200684275,-0.0852862075,0.0653464198,0.0164886229,-0.051602155,0.0103270896,0.0927555114,0.0123601761,0.00161594525,0.0012585537,0.0737375617,0.00127729296,0.015234408,0.0923002511,-0.0733990744,-0.0949205905,0.0345773064,-0.109771788,0.0719348565,0.000388903281,0.00963574648,0.0726297349],[-0.0227907635,0.0589641407,0.021790728,-0.0872080624,-0.0602481849,0.0226689856,0.0490316413,-0.161228016,-0.000419881719,0.00608034153,0.0507742278,0.0359556116,0.0702652633,0.0796252862,-0.00547352713,0.0517333187,0.0453726389,0.0375745818,-0.00195039378,0.0597310364,0.00176902243,-0.045078028,0.0474174432,0.0105024707,0.044311963,-0.0122562004,-0.0863046274,-0.0360522643,-0.00250125723,0.0352034234,0.0887944996,0.0263360925,-0.0844269544,0.0169160403,0.0131664556,-0.00963433553,-0.017573135,0.00708573079,-0.0235270467,0.045123931,-0.0260582361,0.0156902205,-0.0256083738,-0.0801448673,0.0601722077,0.00640942017,-0.0512445085,0.00258290279,0.088155359,0.0042931363,-0.000979221193,0.00160082022,0.0706219897,-0.00324088451,0.0161161479,0.0865621045,-0.0674836412,-0.10495086,0.0272368379,-0.119125701,0.0659199581,-0.00542705972,0.00855697598,0.0698149502],[-0.027105689,0.0563500449,0.0235436577,-0.0791835636,-0.0625223964,0.025226526,0.0342161655,-0.169378102,-0.0036410219,0.00506805535,0.0561139584,0.0324719697,0.0624676384,0.0657963231,-0.00719751837,0.0417614169,0.0396870822,0.0295326915,-0.00813362934,0.0588336624,-0.00143811083,-0.0361164398,0.0398626551,0.00498898001,0.0423869565,-0.0165493544,-0.0863172784,-0.0438621864,-0.00794724189,0.0474483147,0.0780699775,0.0242865793,-0.0809225217,0.0156900585,0.00785348751,-0.0138799064,-0.0211801287,0.0052474197,-0.019047996,0.0364864916,-0.0247116201,0.0091902893,-0.0354983248,-0.0752053931,0.0592646375,0.00461030332,-0.043488238,0.000402273523,0.0835689828,0.0132965446,-0.00078166835,-0.0012258105,0.0669420213,0.0012724055,0.0159755759,0.081884414,-0.0595892742,-0.11905171,0.0192429554,-0.117579535,0.0513080098,-0.0203079265,0.00678518089,0.0674078315],[-0.026236888,0.0528632216,0.0340644084,-0.0750008821,-0.0612723567,0.0297372211,0.0382451527,-0.171112418,-0.0028473991,0.00500345463,0.0520949513,0.031059349,0.0613814518,0.068709597,-0.0248752665,0.0394862145,0.0353478082,0.0466678031,0.00295755453,0.0653484911,0.0166710783,-0.0392573178,0.0408190787,0.00796398334,0.043636281,-0.00794867147,-0.0715972334,-0.0452099703,-0.00376983755,0.042530939,0.0770426989,0.0369336978,-0.0720742494,0.0125911618,0.0165083203,-0.0168966446,-0.0143272094,0.00701538147,-0.0318760648,0.053427536,-0.0015031707,0.0186909065,-0.0241620876,-0.0651963055,0.0652945563,0.0115306647,-0.039173428,-0.00880252756,0.0832342282,0.00214195298,-0.00238136458,-0.00728441589,0.0714174733,0.00659933826,0.0161408484,0.0756635144,-0.055033721,-0.122508205,0.01649368,-0.118282802,0.0451235175,-0.00471642613,-0.00113112177,0.0682135224],[-0.0315399095,0.0396423042,0.0245467443,-0.0797046944,-0.0566441715,0.0195877571,0.0348339379,-0.183962777,-0.00185393379,0.00203262037,0.0475426577,0.0217817295,0.0531601124,0.0505514778,-0.0118963765,0.0354733914,0.0322868004,0.0357282348,-0.0115418518,0.0586120896,0.0150049124,-0.0478177369,0.0269645043,-0.00280521298,0.0382760838,-0.0215728153,-0.0681628361,-0.0519139878,-0.00396347092,0.0391601138,0.0582257174,0.0293115787,-0.0754727647,0.00532123726,-0.000367017987,-0.0184043925,-0.0204972662,-0.011085066,-0.0295763686,0.0528111123,-0.0209530406,0.0119130323,-0.0353656895,-0.0624539927,0.0518477634,0.0105417306,-0.0345428661,-0.0264130402,0.0776471272,0.00887008384,-0.0063785552,-0.0132501731,0.0581179224,0.0085741356,0.0112320781,0.0682826415,-0.0498887412,-0.134203285,0.00973552559,-0.127462059,0.0284011252,-0.0207512081,-0.00902638678,0.0530870296],[-0.0216375161,0.0387664922,0.0361420698,-0.0686318874,-0.0588873439,0.0227421969,0.0403273515,-0.191422597,-0.0146486517,0.0019073328,0.0514137596,0.0240002554,0.0595413968,0.0427334867,-0.00747130113,0.0277563967,0.0304669179,0.0304117687,-0.003018972,0.0543335229,0.0255945139,-0.0322572626,0.0354381688,-0.00221638032,0.0554517657,-0.00437439047,-0.0538457446,-0.0415242091,0.00533852587,0.0422577299,0.0649214238,0.0349596329,-0.0611770116,0.0111322412,0.0124991778,-0.00797070935,-0.0121821212,-0.00513297552,-0.0241233185,0.0685726926,-0.0142136188,0.0168825388,-0.0295559447,-0.0525077172,0.0546112694,0.0106937764,-0.0194993466,-0.0230671931,0.0865988657,0.0101438463,0.00267794379,-0.00670242682,0.0624531209,-0.000353344891,0.0102724051,0.0665651262,-0.0483402871,-0.135771364,0.0172437299,-0.129653633,0.0394785851,-0.0210199691,-0.0133733125,0.0559356585],[-0.019980384,0.0310874153,0.0318676084,-0.0683619007,-0.0671620294,0.0214180592,0.033387322,-0.191685483,-0.00397896115,0.00196476956,0.0485961139,0.0142677659,0.0552005917,0.036045149,-0.0206987597,0.0372488946,0.0329718441,0.0306833033,-0.00270405156,0.0579119213,0.031111151,-0.042388387,0.0290803052,-0.00892724935,0.0422925465,-0.00117475668,-0.0476545021,-0.043818716,0.000394803355,0.0402978435,0.0521398447,0.0307374131,-0.0571235977,0.00846801233,0.0103387395,-0.0112999678,-0.0189930294,-0.0125810243,-0.023552347,0.0669007152,-0.0107193794,0.0174054541,-0.026736863,-0.049437318,0.0477632619,0.013496669,-0.0215388238,-0.0303757824,0.0817474574,0.0138292462,-0.00500864023,-0.0147979166,0.0563879199,0.0111700511,0.0145336539,0.0539426506,-0.0424939804,-0.147566319,0.00665506255,-0.125806525,0.0373179466,-0.023658812,-0.00134737254,0.0511439927],[-0.0180732198,0.0349764116,0.0436878055,-0.0569345579,-0.0612366796,0.0214234199,0.0252680127,-0.19259201,0.00624493416,0.018566303,0.0551819205,0.0186552033,0.0598955378,0.0294318646,-0.0170552451,0.0373954959,0.0386096947,0.0363554098,-0.00436510984,0.0545967184,0.0375386067,-0.0369458906,0.0321125947,0.00732114073,0.0527585298,0.00473933155,-0.0361851491,-0.0421521068,0.0122161573,0.055725459,0.0514025874,0.0398237817,-0.047969915,0.00538640423,0.0227663722,-0.00327142631,-0.0163287781,-0.00497387303,-0.0157380309,0.0819728225,-0.00182894082,0.0215704944,-0.0242167376,-0.0368680321,0.0490204766,0.00668952381,-0.00822821073,-0.0307381041,0.0784793347,0.00879276171,-0.00249455473,-0.00234186021,0.0551333427,0.00690096663,0.00497404998,0.0524328053,-0.0343854465,-0.152971983,0.0077640987,-0.107977621,0.0301987063,-0.0284349378,0.0089431284,0.0608052686],[-0.0193640757,0.0224606935,0.0504518934,-0.0508729182,-0.0600847043,0.0318226255,0.0262200348,-0.197505221,0.00247922889,0.0165941194,0.0533592179,0.0219609272,0.0499571376,0.0178179629,-0.0174079202,0.0307062361,0.0326621942,0.0406038463,-0.0117092738,0.0552954786,0.0458145179,-0.0411184132,0.0268388893,-0.00834895205,0.0431709662,0.00346773281,-0.0321484022,-0.0543155111,0.00625070743,0.042296499,0.0400762446,0.0359910391,-0.0433350019,0.01223973,0.0278735347,-0.00443362817,-0.0129171787,-0.0142971864,-0.0105017219,0.0841156617,-0.00108859723,0.00985057373,-0.0258248579,-0.0359210074,0.0327733345,0.00454444997,-0.00407535769,-0.0299024601,0.0697458461,0.0126523003,-0.0124641415,-0.0159644689,0.0463153869,-0.000835135637,0.0137506677,0.0428885482,-0.0258586835,-0.160552815,0.0102428654,-0.121522389,0.0266817026,-0.0358918048,-0.00839467719,0.0559181347],[-0.0239426643,0.0149959475,0.0379308872,-0.0513853803,-0.066216141,0.0165832266,0.0196841806,-0.203748807,-0.000505022996,0.0101957312,0.0427413471,0.00882164761,0.0479793735,0.00718410965,-0.00982564036,0.0237530153,0.0344881117,0.0300794598,-0.0132201649,0.0484224372,0.0428669415,-0.0485852808,0.00884200633,-0.0167961866,0.0467390493,0.00413594767,-0.0351176262,-0.0490875281,-0.000329290517,0.0350417085,0.0325027332,0.0302648228,-0.0506878346,0.00217464799,0.0120248208,-0.0147521319,-0.0262082722,-0.0292712729,-0.0266414564,0.0873560533,-0.0152712064,0.0048332205,-0.0237913504,-0.0315732956,0.0227076765,0.00163876906,-0.00550092431,-0.0384544358,0.056580212,-0.000294776459,-0.0127909379,-0.0168035589,0.0408270881,0.0105396425,0.00204304187,0.032494653,-0.0245399661,-0.169955671,0.00364316348,-0.126000389,0.0117528355,-0.0344796553,-0.0098576434,0.0423901826],[-0.0112495227,0.0135424314,0.0509387143,-0.0407215618,-0.050091058,0.0192131922,0.0250521004,-0.195441067,0.00930804107,0.0158490408,0.0529325232,0.0173723008,0.0477770753,0.00495743379,-0.0101822279,0.025401514,0.0303339474,0.0438593365,-0.0119092846,0.0507483631,0.0457296483,-0.0368136689,0.0119861607,-0.00773967151,0.0528762601,0.0140044969,-0.0218739975,-0.0442047566,0.00967198983,0.0418550484,0.0337822288,0.0444258638,-0.0354996398,0.0150005436,0.0407320522,-0.00450753793,-0.018447293,-0.0108308997,-0.00979653466,0.104931414,0.00832516421,0.015679447,-0.0290658586,-0.0153389452,0.0275311563,0.0131025165,0.00488359388,-0.0405957513,0.0699313208,0.0171216596,-0.0062724622,-0.00832278095,0.0504415929,0.00804916397,0.0155669115,0.0320919007,-0.0163673963,-0.175023586,0.00453340588,-0.111497395,0.0210135598,-0.0270285513,-0.00798196252,0.0454372428],[-0.0203854609,0.00383348041,0.0458523482,-0.04205947,-0.0750818029,0.0218916163,0.010431828,-0.208123371,0.00486893672,0.0138113583,0.0400450677,0.00778099103,0.0479997769,-0.00236254232,-0.0101921158,0.0203983672,0.0332865752,0.0212190077,-0.0215880219,0.0418947712,0.0545184016,-0.0383868292,0.00496092252,-0.0125557994,0.050069958,0.0215164945,-0.019622514,-0.0510659777,0.00125102722,0.0272481143,0.0319166742,0.0382822938,-0.0306788534,-5.37634987e-05,0.0248301383,-0.00140039111,-0.0160041545,-0.0233213305,-0.0252427235,0.0969887376,0.00352728576,0.018548131,-0.022366643,-0.0140120368,0.0167407952,0.00668616267,0.0041854931,-0.0471122265,0.0635144934,0.00205183029,-0.00310693658,-0.00125571364,0.0350824222,0.0100136669,0.0135043655,0.0234256499,-0.0177647751,-0.175043344,0.00531870266,-0.12160296,0.00999239646,-0.0444994085,-0.0209495872,0.0379355475],[-0.00778695056,0.0028706158,0.040093936,-0.0327274762,-0.0687863231,0.023561243,0.017539056,-0.197210833,0.0096803233,0.0134322271,0.0460615531,0.0044155051,0.0406393781,-0.0129827149,-0.015273842,0.00360244117,0.033153154,0.0180592593,-0.0257382933,0.0471781231,0.0636497289,-0.0366988033,-0.00749010779,-0.0168489199,0.0542248599,0.00165836164,-0.0125738047,-0.0590828061,0.00521554239,0.0336938798,0.0199969336,0.0372959152,-0.0299976114,0.00231227209,0.0259857662,-0.0109841945,-0.0202011522,-0.0212962478,-0.0232129842,0.105898507,0.0109093003,0.0142448042,-0.0196196306,-0.00637009507,0.0230158195,0.00510096643,0.0101501597,-0.055534143,0.0601037443,0.00863807369,0.00108591479,-0.0101870652,0.0300224535,0.00424217433,0.0110206809,0.0180117283,-0.00681601325,-0.169773459,0.0014535879,-0.109165452,-0.000468842423,-0.0496192165,-0.00662563229,0.0163880531],[-0.0214451421,-0.0107217794,0.0331766121,-0.0308045018,-0.0628999472,0.0155321825,0.00389085268,-0.199190304,-0.0053906925,0.0108167762,0.0314111784,-0.00474734697,0.0366328806,-0.0230498761,-0.015680505,0.00191953883,0.0255311877,0.00683846045,-0.0193409026,0.0466258861,0.0605133846,-0.0444872193,-0.0153512191,-0.0223195925,0.0436520241,0.00991363451,-0.0134500964,-0.0605091341,0.011972378,0.0315596387,0.0101829898,0.0355636515,-0.0263140164,-0.00448223902,0.0283438601,-0.00769473379,-0.0319784358,-0.0235938802,-0.0156794637,0.108967088,0.0146474885,0.00786284637,-0.0276589114,-0.00342311733,-0.000922812498,-0.00409270683,0.0089889681,-0.0615565404,0.0519538261,-0.0043036351,-0.0158260707,-0.01843247,0.0217242911,-0.000160638388,0.00441136537,0.00441274,-0.00438991608,-0.188486502,-0.012144275,-0.110187881,-0.0119895758,-0.047592368,-0.0163063947,0.0185942091],[-0.0143729215,-0.00326464931,0.0539708883,-0.0216421634,-0.0515751466,0.00938490778,0.00376221212,-0.18335408,0.00729349442,0.0126958312,0.0335860215,3.49818765e-05,0.0384974182,-0.0205219686,-0.0160836391,0.0119034173,0.028223509,0.0141569125,-0.00825317483,0.0477793701,0.0748338178,-0.0416611433,-0.0186879318,-0.0118195862,0.0555586033,0.0285913162,-0.00499088084,-0.0491730981,0.0191054828,0.0294970758,0.0141549697,0.0539444275,-0.0194701701,0.00313348928,0.0334695354,-0.00142132712,-0.0234925728,-0.0324544124,-0.0116380481,0.136269659,0.0202547945,0.0185303353,-0.0170785654,0.00974972732,-0.00440757396,0.00822834112,0.0174833722,-0.0569910146,0.0524121039,-0.00141809275,-0.00853793789,-0.0193144772,0.0166941397,0.0086513022,0.0103209829,0.00447147945,0.00173326267,-0.185952559,-0.00914257951,-0.105998173,-0.00106995646,-0.0504172742,-0.00904864445,0.021783717],[-0.00383265363,-0.0119814156,0.0496574827,-0.00855829753,-0.056043528,0.0139394868,0.00279985066,-0.190735281,0.0115136793,0.0130741084,0.0417015292,0.00997846015,0.0317463614,-0.0279798303,-0.00483065611,0.00544786872,0.0202185065,0.0108005162,-0.0120631112,0.0449993797,0.08834178,-0.033323735,-0.0143167935,-0.015667377,0.0563029647,0.0293773618,0.00283995667,-0.0543596558,0.0160331,0.0363754407,0.0114579806,0.0483564846,-0.010614072,-0.00335149607,0.0438907184,0.00582674937,-0.0207670238,-0.0232483521,0.00306998705,0.130236,0.022484459,0.0106798466,-0.0166631471,0.0207503345,0.0025897345,0.00704506785,0.0265530106,-0.057218302,0.0446432903,-0.00651846454,-0.0100444658,-0.0119311828,0.0210996717,0.008448801,0.0138438903,-0.000923820655,0.0088279387,-0.189346477,-0.00771235256,-0.0921736211,-0.00592356501,-0.0390670672,-0.00581024913,0.0221175849],[-0.0128338272,-0.0225789752,0.0498109758,-0.00589637365,-0.0490107127,0.00822688546,-0.0189113915,-0.182570666,0.0150991837,0.00929710921,0.033594463,-0.000683352468,0.0332962126,-0.0340187363,-0.0108973896,-0.00397480978,0.0149294343,0.0189809483,-0.0135852713,0.0436444618,0.0825008079,-0.0386463702,-0.0196076334,-0.0245873202,0.0488567203,0.0162591692,0.00455025444,-0.0436258018,0.0223803073,0.0395540483,0.0102838418,0.0550209247,-0.0069677732,-0.00552587537,0.0419781059,0.00699217012,-0.0250898488,-0.0258070864,-0.00101659494,0.142401457,0.0296832137,0.0205851551,-0.0225742683,0.0279605761,-0.00772264879,0.00757015543,0.0302915163,-0.0620661452,0.0531026684,-0.0167976152,-0.0157991704,-0.0167026538,0.0178613048,0.0060076681,0.0166939963,-0.00730266655,0.0132797603,-0.176756918,-0.00490554702,-0.0853102729,-0.00988043193,-0.0573874116,-0.00774585083,0.0141116548],[-0.00510749314,-0.0242320374,0.0470210612,-0.0014544545,-0.0516236909,0.0132578835,-0.0100159142,-0.181664363,0.0105819944,0.0113813393,0.0277741887,-0.0018922626,0.0310789123,-0.0402020626,-0.0144813573,-0.00590026239,0.016902741,0.0109268138,-0.00441935519,0.0376782864,0.0955794528,-0.0275385343,-0.0315874703,-0.0160522833,0.0558263622,0.0365263186,0.0131915966,-0.0419730991,0.0147189014,0.0213237964,0.00797407422,0.0438880138,0.00414207811,-0.00940414518,0.0494766757,-0.000490374863,-0.0225961804,-0.0315649882,-0.00181044231,0.136591613,0.0261138007,0.00907640252,-0.015443529,0.0307954196,-0.00922993198,0.0289473366,0.0393751003,-0.0569810122,0.0472311787,-0.0150041012,-0.020042384,-0.0130244391,0.0161312558,0.00341619807,0.0106580127,-0.0106473211,0.013799998,-0.183124274,-0.000500731519,-0.0830680877,-0.011449283,-0.0530187599,-0.00812695175,0.00183400244],[-0.0123611428,-0.0401728787,0.0631137565,0.00490498543,-0.0460967049,-0.00188704906,-0.0257399771,-0.171488598,0.00794114079,0.0174708329,0.0219820663,-0.00916167721,0.0175152756,-0.045658052,-0.0179626793,-0.0155757638,0.00611021323,-0.00345378695,-0.0260544196,0.0230060499,0.0849901289,-0.0234765597,-0.0409848131,-0.025250271,0.0470914058,0.0289167259,0.0147713209,-0.040461421,0.0176822226,0.0295262169,-0.00214198045,0.0369998403,0.00251371157,-0.0124261733,0.0555573404,0.000371636124,-0.0260498151,-0.0264084321,0.00443390524,0.147101343,0.0214630943,0.01121327,-0.0223745033,0.0322164036,-0.0171863474,0.0103314519,0.036839623,-0.0600103065,0.0368498676,-0.0129594766,-0.0166395307,-0.0221935958,0.00979499519,-0.00586254802,0.0009152313,-0.0206669942,0.0182176661,-0.18572703,-0.00683940249,-0.0745802298,-0.0201637167,-0.0563140996,-0.0265388899,-0.00504392525],[0.00344089814,-0.0446263701,0.0539542474,0.00750026479,-0.0530340262,-0.00405273028,-0.0218961313,-0.178661481,0.00876604393,0.0119142812,0.0115578389,-0.016330706,0.0184323955,-0.0510938838,-0.0110716559,-0.0167110115,0.0061807232,-0.00358974072,-0.0285632126,0.017577162,0.0961705074,-0.0342436731,-0.0485268757,-0.0270372704,0.0523764864,0.0337668918,0.018910924,-0.0394094177,0.0228256173,0.0325133577,-0.0043663024,0.0365657471,0.00768251391,-0.00958247948,0.0544315539,0.0160661582,-0.0165424962,-0.0425416231,0.0118466886,0.153574854,0.0340680219,-0.000128717482,-0.0200435072,0.0375631899,-0.0184704568,0.0132291215,0.0402144752,-0.0621392615,0.0335909203,-0.0241657868,-0.0246772096,-0.0283620618,0.00140989537,0.00312261144,0.0087035168,-0.027268501,0.0236112718,-0.180768237,-0.0128484908,-0.0767289698,-0.0263815727,-0.0598375499,-0.0194354411,6.75141491e-05],[0.0202731807,-0.0491033234,0.052336663,0.0175257083,-0.0394557901,-0.0048161028,-0.0365335345,-0.162632391,0.035061229,0.0151872728,0.00690766843,-0.0215247925,0.0109920055,-0.0553564616,-0.00745653315,-0.02209723,0.00347911287,0.00584192248,-0.020017026,0.0130886855,0.0998301357,-0.023897009,-0.0480287857,-0.0187330581,0.0633109733,0.0357777625,0.0235628821,-0.0354833268,0.02936236,0.0284295864,-0.0110020824,0.0506778844,0.0192136597,-0.0161076356,0.0642629638,0.0123731606,-0.0277305171,-0.0403353535,0.0205765683,0.167685732,0.0465070866,0.0127925901,-0.0205523148,0.0441289246,-0.0161411166,0.00915363058,0.0402520597,-0.0609502979,0.0320833921,-0.0268195961,-0.0205567088,-0.0232623257,0.00283948774,0.0040162825,0.017734535,-0.0312972516,0.0304410849,-0.168852091,-0.0163428225,-0.0576150082,-0.0275898539,-0.0633929595,-0.0149940029,-0.00498902425],[0.0195232239,-0.0638410673,0.0454096049,0.0258846451,-0.0329511091,-0.0148747964,-0.0376859009,-0.158979684,0.0147902053,0.0193369221,0.0058988994,-0.0214497969,0.0157988556,-0.0627677217,-0.00460745394,-0.021499116,0.00637722434,0.0058440594,-0.0239100549,0.0124748657,0.104280792,